WEIGHTS 14 128
-1.14333652e-01 3.38552028e-01 4.38819118e-02 5.99756241e-02 4.82333973e-02 1.99351937e-01 -1.82203129e-01 -3.04088444e-01 -3.13969970e-01 -3.25696260e-01 5.45508385e-01 -2.69521117e-01 -3.60258609e-01 5.45856208e-02 2.30969608e-01 -2.27268517e-01 -5.21831691e-01 1.48984179e-01 3.98993969e-01 -3.67853135e-01 5.59355915e-01 -2.86660939e-02 -8.51897299e-02 -1.25682965e-01 2.46803034e-02 2.84799129e-01 4.61480655e-02 2.72871852e-01 -4.68192875e-01 1.06716352e-02 5.42724967e-01 -3.70323882e-02 -3.15786123e-01 4.39134628e-01 -3.06639969e-01 4.55181777e-01 -1.28277004e-01 -2.98370272e-01 4.60365146e-01 -5.93968153e-01 2.01000227e-03 -3.78302991e-01 -2.21378207e-01 4.66884762e-01 6.56525373e-01 1.34348229e-01 -5.22114754e-01 -6.81523979e-02 -8.45983475e-02 1.07208319e-01 -7.59546831e-02 4.65828627e-01 -6.98994026e-02 -1.84713155e-02 3.77944082e-01 -2.71808028e-01 4.80084211e-01 4.23905194e-01 -2.85657465e-01 2.42770836e-01 6.52287006e-01 -3.25101256e-01 -4.15294766e-01 6.64511740e-01 1.90808043e-01 -5.10308743e-01 2.40540817e-01 -7.38034844e-02 2.81868339e-01 -5.50298393e-01 8.34884048e-02 2.59436995e-01 1.10045232e-01 1.27402693e-01 5.76363742e-01 5.07293046e-01 1.06996104e-01 -1.11440919e-01 -4.62010175e-01 -2.71677703e-01 -7.85686895e-02 4.89251137e-01 2.59393722e-01 -3.13487500e-01 3.52288425e-01 -4.19753015e-01 5.04922450e-01 4.63343889e-01 -2.85564184e-01 -3.75122666e-01 1.86016977e-01 1.72383264e-01 -3.96315128e-01 -4.35322642e-01 -2.51096725e-01 -3.14167947e-01 1.73239693e-01 5.05936682e-01 4.51537669e-02 6.69733882e-01 -1.11878160e-02 -3.20683748e-01 3.13104093e-01 3.56510073e-01 -4.85256046e-01 2.14252859e-01 -3.14429775e-02 -3.48550797e-01 8.62825513e-02 -2.73476452e-01 -6.97828308e-02 2.39433870e-01 2.63351556e-02 4.36300963e-01 -3.36342961e-01 3.61234903e-01 1.51387230e-01 8.79328251e-02 -2.75025457e-01 -5.90424836e-02 -2.42832452e-01 6.91594899e-01 4.43973243e-01 -1.42470077e-01 -2.70139962e-01 5.48583210e-01 4.92000073e-01 -1.81880713e-01
-3.84781748e-01 2.31854320e-01 -4.50474471e-01 -3.88638496e-01 -4.37040180e-01 -3.68172199e-01 2.97051847e-01 4.83964890e-01 -2.22092792e-01 -1.05199568e-01 -4.09587249e-02 4.09630477e-01 -3.86336684e-01 3.64451736e-01 -6.55351698e-01 -5.00500202e-01 -3.36429477e-02 -3.79279166e-01 -6.47816285e-02 -5.61670601e-01 -9.43060890e-02 -5.28424621e-01 -5.52608848e-01 7.03382015e-01 -3.79648089e-01 4.76477802e-01 4.11012709e-01 -4.68746364e-01 -2.83421487e-01 -2.57893413e-01 -1.93491414e-01 -2.51298219e-01 -3.69726419e-01 -3.86474013e-01 -2.47909471e-01 -2.39844546e-01 7.01219797e-01 -5.72942197e-01 6.74697310e-02 -1.79169700e-02 3.84792596e-01 -2.32074391e-02 3.21715362e-02 6.63188279e-01 4.58347112e-01 6.48911819e-02 6.71104193e-02 -4.75330263e-01 -5.75683832e-01 -4.24475521e-01 -3.25782835e-01 2.57282913e-01 2.89470881e-01 4.41766560e-01 3.49256456e-01 -5.56957722e-01 3.94835472e-01 2.01168895e-01 -2.93230444e-01 -5.03962696e-01 -4.55555379e-01 -4.57273334e-01 1.59556773e-02 -5.73336005e-01 -4.43064988e-01 3.39761823e-02 -5.56378186e-01 4.55744088e-01 -4.86380279e-01 3.48898619e-01 5.75148582e-01 -3.91545221e-02 3.86239849e-02 -1.95473671e-01 -6.21372700e-01 -1.21140264e-01 -5.33249199e-01 1.47830341e-02 6.68203354e-01 -3.21276695e-01 6.57614827e-01 1.58098280e-01 -3.34449187e-02 6.61038399e-01 -5.54652452e-01 -4.99176979e-01 3.42678189e-01 6.58857301e-02 5.27052172e-02 6.66743457e-01 1.26382541e-02 6.01269603e-01 -1.00494429e-01 -6.52354777e-01 6.00815237e-01 -2.51407266e-01 7.22529531e-01 -6.58810079e-01 2.20923111e-01 -5.62161431e-02 2.87437551e-02 -1.62690431e-01 -5.31613708e-01 5.24206519e-01 -5.39312661e-01 5.90288937e-01 -1.67881865e-02 -8.67996886e-02 5.01805246e-01 -9.41430479e-02 1.85484469e-01 3.70672196e-01 5.02318561e-01 -7.08883181e-02 4.00283277e-01 -3.77028853e-01 -6.26045406e-01 4.29584026e-01 9.85653773e-02 -4.93951291e-01 -5.12793243e-01 -6.37137294e-02 -1.90604180e-02 3.33730638e-01 5.90812922e-01 5.96617877e-01 -2.76752025e-01 3.32510978e-01
4.39146429e-01 -4.87746507e-01 -3.96514565e-01 3.33867967e-01 -4.27456141e-01 -5.34721494e-01 3.75800252e-01 -2.46465325e-01 -3.94582391e-01 -3.26452285e-01 3.80780846e-01 5.20783961e-01 -9.21900943e-02 -5.10032594e-01 -3.82630140e-01 -5.82426749e-02 -1.21143684e-01 5.17942429e-01 -1.23132557e-01 4.66355473e-01 -1.09942243e-01 -8.83276090e-02 1.03727147e-01 -1.12369172e-01 -4.22446042e-01 1.16902173e-01 -5.62698603e-01 -1.72910094e-02 -3.40305157e-02 -2.48659924e-02 4.41513598e-01 -2.47200236e-01 5.44213891e-01 2.04041243e-01 4.10003886e-02 6.52425513e-02 4.96724188e-01 -5.35594523e-01 -1.63798958e-01 -3.09703052e-01 -5.25270820e-01 2.33825251e-01 -4.80268121e-01 -2.12124631e-01 5.26342034e-01 -4.28600878e-01 -5.15577555e-01 -4.46935683e-01 -4.09803838e-01 -1.57610804e-01 3.23951066e-01 1.00767896e-01 1.58941463e-01 -4.55950975e-01 5.81254423e-01 3.48637342e-01 -1.54301271e-01 2.78143108e-01 2.09037364e-01 1.28554434e-01 2.25838155e-01 -4.08215791e-01 -4.44232047e-01 2.15250403e-01 -4.59018916e-01 1.60571262e-01 -3.92251946e-02 -3.96197140e-01 -3.90360862e-01 -2.80684948e-01 -4.06502485e-01 -3.83043766e-01 2.06898302e-01 -2.11863190e-01 4.39415187e-01 -6.98100775e-02 -2.50694692e-01 5.28387010e-01 1.64902449e-01 -2.70997643e-01 -5.17995536e-01 -8.30769911e-03 -3.13011169e-01 -9.45725851e-03 -2.05733955e-01 1.33190289e-01 4.64735955e-01 -4.82029229e-01 5.14434934e-01 -1.31122187e-01 -3.43153447e-01 -3.08086812e-01 -5.30321717e-01 6.85712788e-03 8.66543055e-02 4.66886789e-01 3.08631688e-01 3.97835940e-01 5.68365574e-01 -5.20633042e-01 1.81892708e-01 -1.47702500e-01 5.60195036e-02 -6.35534301e-02 2.26773784e-01 3.91240388e-01 -2.00913727e-01 2.66865432e-01 4.43257093e-01 -4.28964734e-01 5.97489238e-01 4.00146365e-01 7.39587247e-02 -1.92263365e-01 5.79118669e-01 -5.21713972e-01 5.12310445e-01 -4.85119641e-01 -2.21696626e-02 -1.41544208e-01 1.80658892e-01 -3.74643393e-02 1.12805828e-01 3.07119966e-01 9.05390680e-02 2.64643759e-01 5.60323477e-01 2.57787794e-01
-7.54355192e-02 1.94743220e-02 -3.90991688e-01 -2.97955453e-01 -1.84026614e-01 4.04682070e-01 -1.01941086e-01 -4.29275960e-01 1.65407091e-01 -5.07345796e-01 3.16804737e-01 -2.69163877e-01 8.59889481e-03 -1.65552825e-01 3.04729253e-01 2.03478485e-01 -2.43498191e-01 1.96596682e-01 -2.96158083e-02 -3.12699646e-01 3.68165910e-01 5.75786494e-02 2.77452797e-01 5.89673482e-02 -2.82970011e-01 1.12009913e-01 -2.36804299e-02 -9.11027566e-02 4.36887473e-01 -5.09230047e-02 -2.01454565e-01 1.63338840e-01 4.01064903e-01 -3.46722424e-01 -4.24717307e-01 1.78481519e-01 -7.94762149e-02 2.61617303e-01 3.77999038e-01 -8.18758756e-02 -4.22288366e-02 2.04070490e-02 -2.12127864e-01 -3.34837586e-01 2.44374841e-01 1.71905696e-01 -2.53831416e-01 -4.30588037e-01 -7.96021819e-02 -1.77478656e-01 9.69997868e-02 1.86675619e-02 1.76801719e-02 -3.10826123e-01 -1.76118135e-01 -2.72229135e-01 1.99459717e-01 2.33961552e-01 -2.00222716e-01 1.66696072e-01 1.00418463e-01 2.06963778e-01 9.28876922e-02 -4.49231774e-01 -3.07447523e-01 -1.81045026e-01 -1.26266599e-01 2.63464272e-01 -3.24382603e-01 2.14002252e-01 3.00138686e-02 -1.53641135e-01 3.74440253e-01 1.11355975e-01 4.08818275e-01 1.16581805e-01 -3.92412245e-01 3.11751425e-01 -8.95176828e-02 3.31569556e-03 -2.08085641e-01 -3.54118913e-01 1.32663786e-01 -1.98592991e-01 2.17730448e-01 2.90667303e-02 -3.67007554e-01 1.49102673e-01 1.77365631e-01 2.70224139e-02 -1.49306744e-01 2.72379160e-01 1.19348899e-01 -1.96561180e-02 -4.76930439e-01 7.69688562e-02 1.79765388e-01 -1.50875688e-01 4.36802924e-01 2.68608361e-01 1.99307814e-01 -4.36865389e-01 -1.10630445e-01 2.21764848e-01 -3.45411777e-01 3.14387567e-02 -3.35341364e-01 2.21988410e-01 -4.77281004e-01 -1.98672667e-01 -1.09298185e-01 -1.93166081e-02 3.73496450e-02 2.56993592e-01 -4.92334366e-01 8.54016170e-02 -2.28684053e-01 9.26555917e-02 2.50993907e-01 -5.33079430e-02 -3.32437187e-01 4.46492061e-02 3.30897540e-01 -1.04062043e-01 -4.15935904e-01 -1.03703119e-01 1.57594651e-01 8.54524784e-03
3.83570492e-01 3.60213310e-01 3.08986623e-02 -5.73555052e-01 -6.68338612e-02 8.08692053e-02 9.66517814e-03 2.80904591e-01 -5.09006023e-01 5.04665494e-01 3.43662173e-01 -6.13148361e-02 -1.09823249e-01 -2.93184221e-01 -2.26027817e-01 3.74545842e-01 3.77352536e-01 -2.85369575e-01 -4.21537429e-01 -6.27746403e-01 -2.56156862e-01 2.74134099e-01 -4.45319563e-01 3.52819115e-01 3.30518067e-01 2.69678142e-02 -3.81312311e-01 2.26865798e-01 -1.54204726e-01 1.15333088e-02 3.14974487e-01 1.27162030e-02 -2.41034091e-01 3.29965323e-01 8.06980431e-02 -2.58028477e-01 4.80459780e-01 -2.59867638e-01 6.56920522e-02 -2.44060442e-01 2.44863003e-01 -1.09640639e-02 -1.85655467e-02 3.20812583e-01 1.34974122e-01 -1.34280220e-01 2.27792352e-01 -1.07695661e-01 -3.45397949e-01 -3.24116558e-01 5.78760684e-01 -1.30493686e-01 3.02984715e-01 -4.97304529e-01 -4.62810732e-02 -3.61998682e-03 -4.80794162e-01 5.56467056e-01 -3.80945772e-01 -5.00936627e-01 -3.37175310e-01 7.78144002e-02 5.74116930e-02 1.17806129e-01 1.75486162e-01 4.81175452e-01 3.26380521e-01 -1.04339093e-01 -2.77490944e-01 2.82255888e-01 -6.83293864e-02 6.00092769e-01 -4.12598938e-01 -7.18573704e-02 -2.83117235e-01 2.53743410e-01 -4.79379386e-01 -3.69047761e-01 -4.71447229e-01 4.12405938e-01 3.41420829e-01 5.39145052e-01 4.87555176e-01 -6.09973252e-01 2.24616915e-01 7.68152822e-04 -5.32535553e-01 -7.46185929e-02 7.00564012e-02 7.51805380e-02 3.06015071e-02 5.10310113e-01 2.00810388e-01 6.83453307e-02 1.56055942e-01 -5.15385389e-01 2.61509478e-01 5.76586664e-01 -5.72859168e-01 1.33462414e-01 -6.62229881e-02 -5.42298593e-02 -1.77539308e-02 2.50389993e-01 -5.99959910e-01 -2.63187051e-01 1.32973894e-01 -1.25943631e-01 -6.30482614e-01 -1.08596824e-01 -1.21280923e-01 -5.00021219e-01 1.63812414e-01 -5.88457525e-01 -2.85688877e-01 3.45068336e-01 1.84590044e-03 4.43738103e-01 -4.50573176e-01 -2.77858824e-01 3.73916268e-01 -1.13060430e-01 -7.64914264e-04 -3.36156070e-01 -2.06097424e-01 3.38643827e-02 -1.02658771e-01 -3.14625025e-01
9.01545584e-02 5.50268412e-01 6.05881333e-01 1.61263525e-01 1.54738218e-01 -5.99568248e-01 2.37031907e-01 -3.46977979e-01 4.45640564e-01 -2.22517654e-01 -1.21811271e-01 2.11974651e-01 -3.87215555e-01 2.98536360e-01 7.23175183e-02 -5.72179668e-02 -1.54218838e-01 5.83473086e-01 -1.17577940e-01 3.05207878e-01 3.55348349e-01 4.99254614e-01 8.20847303e-02 6.68726861e-01 -4.60962504e-01 5.42143106e-01 -1.66802555e-01 1.09994039e-01 4.44193423e-01 2.19532534e-01 -6.24593437e-01 2.50779152e-01 -1.88672636e-02 -1.33895338e-01 -5.63665628e-01 2.24693567e-01 1.54530823e-01 -1.38299391e-01 4.51486140e-01 1.25459209e-01 3.64009202e-01 1.74493462e-01 -5.26155055e-01 -2.51922440e-02 6.61317348e-01 -1.06065527e-01 -9.52346846e-02 5.24203539e-01 1.83872014e-01 -1.14922479e-01 3.53901237e-01 -1.25406673e-02 -3.23522300e-01 2.32389554e-01 3.26263867e-02 1.07332699e-01 -3.77884835e-01 -6.02593541e-01 -4.70054626e-01 2.74603248e-01 3.56978327e-01 -3.03706437e-01 6.11059785e-01 5.92141747e-01 -7.75747523e-02 -1.59153789e-01 3.81187409e-01 2.63025105e-01 1.47306442e-01 -7.93670267e-02 -5.62446475e-01 -1.56469494e-01 -5.94386458e-01 -4.23856765e-01 1.97300777e-01 1.06300198e-01 2.92154163e-01 -8.14129934e-02 5.99089026e-01 3.43386561e-01 -3.19496244e-01 2.76441604e-01 -5.24331987e-01 5.11900365e-01 -6.05908096e-01 4.82300758e-01 5.56661308e-01 8.62291083e-02 2.22642943e-01 2.06539139e-01 3.30588639e-01 4.45482492e-01 5.56075692e-01 2.20321283e-01 -3.61620218e-01 9.12089199e-02 -2.10243419e-01 -6.27985895e-01 -2.13213772e-01 1.71745494e-01 -4.11426425e-01 -4.76827025e-01 -9.14286003e-02 -7.46696740e-02 -4.47900444e-01 4.54991370e-01 -5.24667144e-01 -4.67970818e-01 5.35832107e-01 1.67445093e-01 4.21672985e-02 -6.04802072e-01 2.39498168e-01 -3.41898769e-01 -8.48825276e-02 4.11788970e-01 -1.80191889e-01 9.36850309e-02 2.41057858e-01 2.33412772e-01 4.61164899e-02 3.38111520e-01 -5.22952199e-01 3.87251884e-01 -2.50793993e-01 5.17426670e-01 -6.00524724e-01 -5.36437392e-01
-4.91641790e-01 -5.70393026e-01 -1.50855318e-01 5.84389925e-01 -3.33223566e-02 -6.28179848e-01 -1.18899040e-01 4.43099648e-01 -9.10418257e-02 3.53177607e-01 -3.88307691e-01 -8.99252146e-02 -1.01280406e-01 5.20254910e-01 -2.98816383e-01 -2.61422724e-01 -2.09647849e-01 -4.00857180e-01 2.44588137e-01 -6.38007343e-01 2.79141605e-01 -2.45061554e-02 5.66322684e-01 3.26800108e-01 5.31263165e-02 4.57034186e-02 3.05359900e-01 2.71692812e-01 5.18400315e-03 -3.14800590e-01 -4.42343354e-01 -6.11074805e-01 -3.98816198e-01 3.51975888e-01 -1.81044385e-01 3.85933131e-01 1.66768610e-01 1.98246598e-01 2.80144781e-01 1.61781475e-01 4.02727634e-01 3.09289873e-01 3.00474353e-02 4.42867428e-01 4.07696627e-02 4.51893330e-01 3.45723420e-01 -4.78869677e-03 -1.77451104e-01 -5.92355318e-02 1.21439122e-01 1.63853362e-01 2.13333935e-01 2.67925441e-01 -1.56280771e-01 -3.19062829e-01 -1.87441140e-01 -2.51145273e-01 1.46112353e-01 2.12441519e-01 -6.38082698e-02 4.76941586e-01 2.37181649e-01 -5.60324371e-01 4.13600683e-01 -4.09176886e-01 -1.68862328e-01 4.91458893e-01 -3.83658946e-01 4.64093029e-01 5.36877453e-01 -3.88789400e-02 1.56988963e-01 7.83450454e-02 -4.47903484e-01 2.51508325e-01 3.02496821e-01 -4.02276665e-01 -2.68040091e-01 5.30331850e-01 3.83584976e-01 -3.91508460e-01 4.19322252e-01 -2.34935403e-01 -5.77867590e-02 2.45068118e-01 -3.36249262e-01 1.94511533e-01 2.08474636e-01 -4.70060021e-01 -1.83158264e-01 2.29980960e-01 -4.98890072e-01 -4.90414321e-01 1.49429813e-01 -3.29604179e-01 1.25143915e-01 1.37573093e-01 -1.07106216e-01 1.00095116e-01 6.11014664e-01 3.69222969e-01 4.37183194e-02 2.10641757e-01 -2.37612575e-01 3.60520631e-01 -1.27551243e-01 -3.62057060e-01 2.28484064e-01 4.71053123e-01 3.06820273e-01 4.98092532e-01 -4.34950739e-01 -1.39218166e-01 1.55428216e-01 2.39954919e-01 -5.54194264e-02 5.24523616e-01 4.85253572e-01 5.57241559e-01 3.62625211e-01 -1.25067392e-02 5.29867887e-01 3.11929006e-02 5.81153631e-01 -5.37038743e-01 -2.84071267e-01 3.15573394e-01
-1.07088052e-01 -4.24447477e-01 -2.52981126e-01 3.40026110e-01 -9.85607281e-02 -3.22733745e-02 2.34676480e-01 -2.99196005e-01 -3.48933756e-01 -1.50424346e-01 -1.35736123e-01 -2.18920827e-01 -3.85206759e-01 5.50499618e-01 -3.22582871e-01 -1.78348079e-01 -2.57696122e-01 1.75861657e-01 -5.97310066e-01 -4.61913079e-01 -2.70553529e-01 4.28719044e-01 -4.41935539e-01 4.71438497e-01 -5.06142557e-01 -5.90426028e-01 6.14718676e-01 -4.79588751e-03 -2.02625066e-01 3.42510402e-01 3.79355639e-01 2.51289845e-01 5.23243964e-01 -1.69364378e-01 -6.30916476e-01 -4.46569890e-01 1.18456371e-01 -6.37551844e-01 -9.32349637e-02 1.37378797e-01 3.69492561e-01 -5.73232293e-01 -4.87607449e-01 -9.86800566e-02 4.98854429e-01 4.58257467e-01 4.13559079e-01 -3.70797575e-01 1.40712455e-01 -2.57782429e-01 2.53731847e-01 -1.48685113e-01 -4.36548054e-01 -1.93559900e-01 6.12866163e-01 1.18225187e-01 4.16521043e-01 -5.89757264e-01 -2.02930897e-01 -6.19079806e-02 8.01076740e-02 -2.85630733e-01 1.58098355e-01 3.59078586e-01 5.87857068e-01 -2.69745678e-01 -4.83064055e-01 -3.16282570e-01 -3.92973423e-01 3.21523100e-02 -6.59626648e-02 -4.06577319e-01 2.22911417e-01 -3.37054044e-01 4.35738973e-02 6.20991401e-02 -5.13218284e-01 1.11502409e-01 4.43306118e-01 2.05564782e-01 -5.29437214e-02 -9.84266847e-02 -5.09627797e-02 -2.79825717e-01 4.72507149e-01 -8.67523104e-02 1.61586165e-01 -6.48433208e-01 9.28001106e-03 1.81790471e-01 -5.67300439e-01 1.36009380e-01 5.92147231e-01 4.89205033e-01 5.05057693e-01 3.51160467e-01 2.73523003e-01 3.06332350e-01 -3.82903695e-01 -6.18399143e-01 2.94104397e-01 1.99282512e-01 2.48924702e-01 -3.72279853e-01 2.52882332e-01 -7.03278109e-02 -3.52397472e-01 -2.95988888e-01 -4.51675385e-01 3.81153911e-01 1.97209656e-01 -1.90116733e-01 -1.26164779e-01 -5.73566794e-01 -4.49206501e-01 -1.66713774e-01 8.58856365e-02 -4.78574395e-01 2.22294912e-01 2.91411847e-01 -4.86296676e-02 -4.17688459e-01 -2.77215809e-01 -5.77749074e-01 -5.12867391e-01 2.44299576e-01 -4.45372164e-01 3.88585478e-02
-2.59918958e-01 3.74743849e-01 -5.04667759e-01 3.13709289e-01 1.63882554e-01 -5.81543028e-01 3.64633679e-01 -4.76394653e-01 2.29070820e-02 8.88959467e-02 -3.17425400e-01 -1.12383969e-01 1.95774034e-01 -5.30078411e-01 5.69992781e-01 -2.53520727e-01 2.48521999e-01 1.16639100e-01 -1.00938618e-01 4.73980427e-01 -3.05952340e-01 -3.04025561e-01 -5.07196128e-01 3.94068919e-02 1.87265739e-01 4.97430027e-01 2.91624278e-01 6.81664273e-02 4.10288692e-01 4.73417103e-01 4.60058451e-01 3.46466243e-01 2.43447304e-01 -5.67314386e-01 -9.56856925e-03 -4.98796314e-01 3.14089894e-01 -3.99269551e-01 -2.80680686e-01 -1.67421877e-01 -2.25284830e-01 -7.18466163e-01 3.74586374e-01 1.63899958e-01 -9.13155377e-02 7.45967478e-02 1.76548585e-01 1.26825124e-02 1.63658097e-01 -4.14335467e-02 -1.62805408e-01 -4.15229261e-01 1.84508890e-01 4.85574454e-01 -3.05030376e-01 -4.13247347e-01 5.12423925e-03 -3.42387915e-01 -1.62086755e-01 5.98962903e-01 4.02903408e-01 -6.04289412e-01 3.55712503e-01 1.92328304e-01 3.81222107e-02 4.09668386e-01 6.22380912e-01 3.77112657e-01 -7.47115389e-02 -1.62481681e-01 -1.44348070e-01 -6.31481290e-01 4.22022432e-01 2.41515100e-01 -1.52560711e-01 2.98161983e-01 -4.18545127e-01 -5.12946665e-01 1.39641628e-01 3.56636494e-02 -5.57901263e-01 -1.67557880e-01 -2.66925603e-01 -1.55378968e-01 -1.72216073e-01 3.47966313e-01 5.02678871e-01 -6.97455585e-01 -3.65175337e-01 -8.76477063e-02 3.33583534e-01 2.84237057e-01 -1.27552584e-01 1.42679051e-01 1.41488001e-01 4.91187751e-01 4.12507176e-01 3.52573603e-01 -2.02820733e-01 -1.17948756e-01 1.09915681e-01 1.20559715e-01 2.15874791e-01 -3.22721481e-01 -2.27456018e-01 -1.15671111e-02 2.73933150e-02 -1.46481156e-01 -8.03021062e-03 -1.18455335e-01 -3.26379001e-01 -6.18005574e-01 4.54254031e-01 3.16272646e-01 3.57935071e-01 4.25018728e-01 -5.79961836e-01 -6.76071495e-02 4.26447332e-01 2.00164333e-01 -4.11965519e-01 -1.53094783e-01 -2.46821657e-01 2.19334990e-01 4.89217013e-01 -1.23366252e-01 -3.84595513e-01 -2.61305809e-01
4.40220743e-01 6.62204549e-02 -3.58064204e-01 5.85352659e-01 -5.17226994e-01 -4.90548790e-01 -2.92975992e-01 5.39648458e-02 -4.52045947e-01 -5.61844289e-01 9.63107571e-02 -5.12774736e-02 3.85397583e-01 -2.34346688e-01 -6.28828779e-02 2.70598471e-01 4.49366242e-01 -1.52933434e-01 -4.30706918e-01 1.05012342e-01 5.69760561e-01 -1.30594388e-01 -5.17803073e-01 2.69015253e-01 3.63910161e-02 1.93008080e-01 -2.38499463e-01 -3.97947907e-01 3.63143712e-01 5.29007137e-01 4.14420068e-01 -3.20896178e-01 -5.54673731e-01 1.79619759e-01 6.18137792e-02 2.93333203e-01 -2.61080563e-01 2.23936930e-01 3.08209825e-02 -2.45167121e-01 4.16618764e-01 -4.75639969e-01 3.90276104e-01 -1.89044669e-01 -5.71135700e-01 -3.22592765e-01 3.78092587e-01 -1.71137512e-01 6.99278340e-02 -4.08432819e-02 2.66421080e-01 -5.25297225e-01 5.09922244e-02 -2.17744380e-01 4.90308493e-01 -2.70218104e-01 9.42877606e-02 7.40753580e-03 8.34053755e-02 -4.55040745e-02 3.80484492e-01 1.39438480e-01 -1.95633918e-01 -1.50850257e-02 -6.03117168e-01 -3.42844993e-01 3.39066803e-01 -5.05092800e-01 2.96400458e-01 2.17426062e-01 -3.82416576e-01 -5.16267180e-01 -1.12210535e-01 -2.53568083e-01 -3.05157512e-01 -2.23788694e-01 4.66290355e-01 4.38061714e-01 -3.45143348e-01 5.99762797e-01 1.75384760e-01 -1.38156876e-01 1.29891798e-01 4.47556615e-01 8.49008784e-02 4.69015092e-01 -3.31582576e-01 1.60079613e-01 -2.55741447e-01 -2.63858903e-02 1.49454519e-01 -4.15675879e-01 2.50253618e-01 -2.90653229e-01 4.42219675e-01 6.14038646e-01 -5.40329032e-02 -3.93447727e-01 -2.85823464e-01 3.77584308e-01 5.87799489e-01 -6.14592172e-02 2.02763796e-01 6.19395852e-01 -3.50512676e-02 -1.13387011e-01 -5.83590746e-01 1.28761446e-02 -7.86366239e-02 -1.29098833e-01 2.53591806e-01 -2.16931611e-01 -6.81778714e-02 1.99793383e-01 -8.14622939e-02 3.35085154e-01 -6.50863051e-01 -2.30464429e-01 6.24104381e-01 4.59571660e-01 -1.27149403e-01 1.37266427e-01 -3.88296813e-01 3.36598717e-02 4.75183539e-02 -4.88859862e-02 -4.90283847e-01 -4.60596859e-01
6.72469020e-01 5.49736619e-01 6.42218888e-01 -1.65890127e-01 1.55191496e-01 1.20120451e-01 -1.56760320e-01 1.17731482e-01 -5.87828040e-01 1.85529888e-01 -3.64023745e-01 -2.87429810e-01 2.57817376e-02 -5.81926882e-01 -4.79418844e-01 3.27845842e-01 -2.03470632e-01 -4.78147596e-01 -7.23899245e-01 -6.44745708e-01 -2.93831885e-01 -4.46075946e-01 -5.99415004e-01 4.92543161e-01 3.27346027e-01 3.51446688e-01 1.83551520e-01 6.71595037e-01 5.11814117e-01 6.45009577e-02 3.19634974e-01 7.10204303e-01 5.95153928e-01 2.56144583e-01 -1.60168707e-01 4.29508686e-01 1.78364262e-01 1.76270097e-01 -6.06241047e-01 -3.73075277e-01 8.16923901e-02 -2.17697307e-01 1.27631485e-01 3.86246145e-01 -2.49950290e-01 4.24167335e-01 -1.62667304e-01 2.22293839e-01 -2.30149820e-01 1.16213672e-01 4.39482510e-01 -5.76866865e-01 -5.94959199e-01 2.48987347e-01 4.62680161e-01 -3.13498199e-01 -5.72032809e-01 -5.96568286e-02 5.40784776e-01 2.97009408e-01 -2.47098848e-01 -2.31173426e-01 6.13417029e-01 -2.39620313e-01 2.60898650e-01 5.38428783e-01 -1.09719299e-01 5.01586080e-01 2.26472303e-01 5.01236796e-01 -2.85290834e-02 1.78763837e-01 -2.53327996e-01 -5.31623960e-01 -3.96208972e-01 -5.50976455e-01 -2.68536419e-01 -6.36801660e-01 2.73476094e-02 9.58962217e-02 2.53366560e-01 -7.03944802e-01 6.88545883e-01 -1.96139030e-02 2.72625506e-01 2.57074118e-01 3.97874475e-01 -3.84054668e-02 -6.24520898e-01 9.00861062e-03 -6.17015183e-01 -5.96065879e-01 -1.16731837e-01 -7.92579710e-01 3.51217836e-01 -4.66268599e-01 -4.04023707e-01 1.55249298e-01 -5.21348834e-01 3.16585243e-01 3.21868807e-01 -4.32133347e-01 1.40567079e-01 -2.90034205e-01 -3.22617114e-01 1.20150708e-01 -5.66035092e-01 5.18601537e-01 3.25950623e-01 5.00500083e-01 9.04968455e-02 -1.77330598e-01 5.78411698e-01 -5.99033237e-01 2.14468881e-01 1.80598088e-02 -3.44755113e-01 -3.86231750e-01 3.89825523e-01 2.66356885e-01 5.58729172e-01 -2.66177744e-01 -5.35698593e-01 4.13924605e-01 3.72003168e-01 4.23631251e-01 4.26466405e-01 7.06063390e-01
9.63308960e-02 -2.68207699e-01 -9.67044160e-02 -4.20526206e-01 -5.24873376e-01 -4.86460626e-01 3.50899547e-01 -6.68063089e-02 3.17872167e-01 -1.36006862e-01 9.57900211e-02 -6.93141401e-01 -6.88019991e-01 -3.16098958e-01 -2.04588354e-01 5.92216194e-01 -3.83086264e-01 3.53382409e-01 3.62530977e-01 -2.00822279e-01 -1.00341178e-01 4.91116673e-01 2.51946628e-01 -1.48861269e-02 -7.89612234e-02 2.57822499e-02 1.21738873e-01 5.40961742e-01 -8.23888108e-02 4.83102083e-01 9.13531408e-02 3.62095952e-01 3.59214187e-01 7.00548515e-02 -5.36256850e-01 -1.29586875e-01 -2.89731055e-01 6.10080697e-02 -4.87567872e-01 -5.72231002e-02 9.17920098e-02 -1.06723472e-01 6.30983055e-01 -1.58216849e-01 -2.68339723e-01 -5.50612688e-01 -1.00412197e-01 -6.20210469e-01 1.86047971e-01 5.03301680e-01 -1.91213131e-01 5.31974137e-01 4.86760378e-01 -1.57604948e-01 -1.37804776e-01 2.08018231e-03 -2.49219432e-01 -5.29503763e-01 -6.19434893e-01 -2.99802423e-01 3.78869534e-01 5.20490587e-01 -3.97724479e-01 -1.92736057e-04 -5.57798088e-01 -5.36743164e-01 3.65291983e-02 -2.65355974e-01 -2.66027749e-01 -7.54950419e-02 -2.61719793e-01 -1.75093994e-01 -4.38388795e-01 -1.20386851e+00 3.95435363e-01 -1.29505191e-02 4.04413015e-01 2.22668484e-01 3.52706134e-01 -1.25096694e-01 -5.61852120e-02 -2.59394407e-01 5.25618941e-02 4.81313355e-02 2.33834267e-01 2.98349708e-02 -3.37898582e-02 -2.44756892e-01 -3.09592903e-01 6.09566569e-01 6.33236468e-01 -6.05020642e-01 -5.31485558e-01 -2.93317251e-03 -5.65833926e-01 3.94209146e-01 2.59612441e-01 6.59909286e-03 -5.98434925e-01 -5.76494217e-01 -2.27849454e-01 -2.42969334e-01 -4.21989530e-01 -7.89565325e-01 9.28898901e-02 -5.39195597e-01 -1.06495887e-01 2.58037820e-02 1.12396732e-01 -5.91104209e-01 2.32054503e-03 1.76379606e-01 -3.69580984e-01 5.39056063e-01 1.48505673e-01 -3.38425711e-02 3.79373610e-01 1.63508847e-01 3.29314619e-02 -3.67979296e-02 -1.62624389e-01 -6.65226817e-01 1.59839824e-01 -9.67852585e-03 -6.47226989e-01 -2.01460838e-01 -3.45797896e-01 -2.17099965e-01
1.93468004e-01 -3.10169846e-01 4.64566141e-01 -7.09375367e-02 6.36225104e-01 8.66947621e-02 6.59955144e-01 3.49942476e-01 2.73842990e-01 -3.72521967e-01 -4.36198741e-01 4.20536846e-01 5.20922482e-01 1.78313717e-01 6.33510179e-04 -2.54676715e-02 -2.39225760e-01 -4.05037552e-01 6.76830113e-01 2.87355751e-01 6.28880978e-01 6.67203903e-01 1.76643357e-02 -5.70411623e-01 5.39892375e-01 -4.21733230e-01 5.22683561e-01 1.01133436e-03 5.00213683e-01 -1.30173162e-01 1.38136163e-01 2.66114086e-01 -3.23337585e-01 2.04616159e-01 4.53468263e-01 -3.82800519e-01 5.01881003e-01 -2.21641481e-01 -4.82720733e-01 -4.57247198e-01 -4.98078018e-01 1.24626577e-01 3.22136581e-01 -3.67871076e-01 4.80700046e-01 5.98871469e-01 2.96222299e-01 -2.75182217e-01 -5.69380820e-01 -4.64478850e-01 -4.12839770e-01 1.42549813e-01 -3.07185203e-01 8.06065202e-02 3.30144912e-01 5.20428158e-02 -6.24082029e-01 5.21749139e-01 2.72931010e-01 -4.88509595e-01 3.85353982e-01 4.19645160e-01 6.87542409e-02 -6.76601231e-02 5.47934771e-01 4.82510149e-01 4.59939241e-01 6.43157884e-02 2.11174235e-01 3.83288026e-01 -5.40027678e-01 6.47728503e-01 2.31806457e-01 -1.27679676e-01 2.22172678e-01 -1.76487848e-01 -8.21428075e-02 5.62416732e-01 -4.42942411e-01 3.73956323e-01 -4.03103769e-01 -5.50845802e-01 -3.98110032e-01 4.95050699e-02 -3.58905420e-02 -2.16988437e-02 -3.58757824e-01 -3.43094826e-01 -5.22433639e-01 4.65725571e-01 -6.00358307e-01 2.31039241e-01 4.34666544e-01 -4.66659144e-02 9.42368507e-02 -8.00189897e-02 1.75215349e-01 6.16777360e-01 3.83861989e-01 -1.70878410e-01 1.00948527e-01 1.44947425e-01 4.36559260e-01 5.16024411e-01 -3.13060254e-01 -1.93073705e-01 -6.32192612e-01 2.82522172e-01 3.52460295e-01 -4.87175398e-02 -5.45901299e-01 5.15387058e-01 6.63309336e-01 -4.02701408e-01 2.82367408e-01 3.60623032e-01 3.78182232e-01 -3.80567998e-01 2.47396886e-01 2.58880198e-01 5.94083726e-01 1.67832896e-01 3.66737336e-01 5.41036546e-01 2.55765200e-01 2.62643993e-01 1.18264660e-01 -4.16628629e-01
5.45066893e-01 -1.32742256e-01 3.72332074e-02 2.29360908e-01 -1.12579241e-01 1.00230291e-01 -3.53280783e-01 2.30311349e-01 -3.20009381e-01 -1.69059739e-01 -1.52142256e-01 -4.86648589e-01 -2.08766460e-01 5.49648046e-01 6.54724717e-01 2.77722955e-01 -6.48454189e-01 1.21797495e-01 -5.30119717e-01 -3.33694518e-02 1.50136635e-01 5.00058293e-01 5.09016156e-01 -4.04655337e-01 4.35920864e-01 3.09138834e-01 -1.51724935e-01 3.42456758e-01 1.29492179e-01 -3.41337740e-01 3.52812290e-01 3.14855665e-01 -5.50263882e-01 -5.77741623e-01 8.74003023e-02 3.59208554e-01 -1.20038405e-01 6.43319607e-01 7.90746436e-02 3.78327191e-01 4.78541642e-01 1.84858710e-01 -1.81528494e-01 -3.51427309e-02 -2.10630208e-01 5.04234910e-01 4.44117695e-01 -5.07804692e-01 5.15888751e-01 -1.92903847e-01 2.47262299e-01 4.50220168e-01 2.51637936e-01 2.80264318e-01 5.45555651e-01 -1.17838591e-01 -3.85682017e-01 6.12470090e-01 -4.43286180e-01 -3.16056132e-01 -1.50766239e-01 2.35060826e-01 2.25607529e-01 2.05400929e-01 1.08590029e-01 2.34739453e-01 4.63649720e-01 4.73439366e-01 -3.63301367e-01 -5.66329896e-01 4.90586400e-01 5.45620203e-01 1.60789013e-01 -7.06790924e-01 -1.46547005e-01 -5.82966685e-01 -5.97056627e-01 1.93782300e-01 4.69546169e-01 -3.14420551e-01 1.86017901e-01 6.31377637e-01 1.64315552e-01 1.35924459e-01 -4.06753957e-01 3.43765914e-01 6.11295283e-01 5.40603817e-01 3.64191920e-01 1.39531389e-01 5.95290542e-01 4.34039295e-01 -5.60924947e-01 -1.25049472e-01 -1.33201122e-01 -5.04209638e-01 -8.75153765e-02 2.83157557e-01 5.92651308e-01 5.94953418e-01 -2.70013846e-02 2.23336190e-01 -3.57943356e-01 -1.73043564e-01 -3.88623595e-01 -4.82070148e-01 1.65673256e-01 -4.08562422e-01 1.68338060e-01 -3.26308370e-01 4.03681099e-01 -2.68841714e-01 2.23317817e-01 5.11405766e-01 4.84670877e-01 -2.24108547e-01 5.36078155e-01 5.47100484e-01 -4.41302598e-01 2.98067361e-01 -5.24277687e-01 -5.37947774e-01 -5.05701780e-01 -2.94403166e-01 -6.65440440e-01 -3.95577461e-01 2.00466692e-01 -7.92293549e-02
BIASES 128
-2.22337078e-02
-8.57741982e-02
-3.07229087e-02
-2.68111657e-03
-4.55102930e-03
2.56319307e-02
1.49579436e-01
1.73180792e-02
-5.39423637e-02
-2.71983314e-02
4.88060713e-02
-6.32423833e-02
-1.83938667e-02
-1.42728299e-01
4.19097133e-02
-4.84669767e-02
2.40067467e-02
1.06537119e-01
1.08841329e-03
6.76516071e-02
-4.66733910e-02
-7.48182237e-02
6.00370541e-02
-4.09434177e-02
-9.53490064e-02
4.59521413e-02
-3.75959165e-02
-3.16034928e-02
-3.12621035e-02
-2.45006129e-01
-5.39794452e-02
-2.53361374e-01
-3.37241925e-02
-2.56581120e-02
8.41352064e-03
-2.03286447e-02
1.59683302e-01
1.02998065e-02
2.50754356e-01
-1.02900071e-02
3.65463234e-02
4.90343980e-02
1.51201546e-01
-7.80940428e-02
-6.23806156e-02
-9.96457264e-02
-6.93806633e-02
3.09089031e-02
5.45293139e-03
-4.06279415e-02
4.44768891e-02
-1.77522689e-01
1.29884019e-01
2.20370777e-02
-4.97937649e-02
-9.54886824e-02
3.34419489e-01
2.21942714e-03
4.09371667e-02
-1.64559018e-02
-3.15324478e-02
4.98526618e-02
7.72131258e-04
-3.90744116e-03
-3.26936468e-02
-1.87883005e-02
7.12234452e-02
5.58317080e-02
-6.20884374e-02
-2.15381477e-02
1.48996767e-02
4.43319418e-03
-1.53846694e-02
-5.29209413e-02
-2.21115611e-02
-5.36207445e-02
-6.71188384e-02
8.21898505e-02
-8.34590122e-02
-1.23264492e-02
4.32185875e-03
4.23896462e-01
-5.94523400e-02
4.31245975e-02
4.58153011e-03
-7.63487667e-02
1.56966187e-02
-2.33475119e-02
1.67712830e-02
-8.40658322e-03
-1.76954903e-02
2.34980844e-02
-6.72889501e-03
1.48882763e-03
-3.15587665e-03
-3.47363986e-02
2.72374768e-02
-3.28473747e-03
-2.29130853e-02
-3.13796289e-02
-2.29218286e-02
-2.88250949e-02
-2.62078792e-02
-4.95530851e-02
-2.99635548e-02
-5.29753491e-02
2.98831370e-02
-7.40714446e-02
-1.64137706e-02
5.26752649e-03
-8.93237442e-02
2.54792217e-02
-7.21880347e-02
-4.42634895e-02
-1.08885385e-01
-5.36484271e-02
2.69814604e-03
1.41952857e-01
-1.23659074e-02
5.78258047e-03
-7.57946074e-02
-7.83949271e-02
-5.49699180e-02
-5.93322180e-02
-5.03544174e-02
-1.26394749e-01
-1.15815196e-02
-8.24557915e-02
WEIGHTS 128 128
-2.19919324e-01 -1.53820232e-01 -1.25051841e-01 -1.61374047e-01 -2.46130243e-01 1.03633858e-01 1.32198676e-01 5.41599356e-02 5.03536016e-02 -1.26975730e-01 6.91217184e-02 -1.53932348e-01 1.94923267e-01 7.09519759e-02 1.06263757e-01 -7.59742334e-02 1.80393338e-01 -1.00273617e-01 -1.84279293e-01 -1.35955080e-01 -4.67805453e-02 -3.98769304e-02 6.26625866e-02 -1.75593868e-01 -2.93807429e-03 1.99624151e-01 4.31751274e-02 2.12219153e-02 1.78650051e-01 -1.25860989e-01 1.36813268e-01 2.21985489e-01 2.67126281e-02 -9.04021263e-02 -1.00573622e-01 -2.34656900e-01 -9.62267518e-02 5.71105853e-02 4.53303382e-03 -1.49429023e-01 -4.96170856e-02 1.30861387e-01 7.89909884e-02 -4.36933897e-02 -2.06990644e-01 1.58736512e-01 5.99431247e-03 7.86714256e-02 1.16580755e-01 -2.79839747e-02 3.09517188e-03 -8.13815817e-02 1.81700528e-01 2.01574657e-02 -3.49700004e-02 1.12113096e-01 5.29135019e-02 -6.79906905e-02 -4.10770923e-02 -4.81678061e-02 -1.17918722e-01 -1.28355712e-01 9.68529731e-02 1.63130328e-01 -1.68385684e-01 -1.24187768e-01 5.05451523e-02 -1.93237036e-01 6.89916834e-02 1.28391340e-01 -9.69595164e-02 -1.28438830e-01 -1.39071018e-01 -5.53753739e-03 -1.48845449e-01 -1.67433605e-01 -8.42774361e-02 1.56417981e-01 1.24720961e-03 -9.97007415e-02 -5.07626832e-02 4.79266420e-02 1.14477374e-01 1.68239847e-01 3.36891972e-02 8.83968845e-02 7.93964788e-02 9.89517942e-02 9.39897597e-02 1.63037270e-01 -1.07081525e-01 -1.10293496e-02 -1.82285607e-01 -2.62082778e-02 9.94393378e-02 4.40503322e-02 -4.10840996e-02 1.49639234e-01 -1.70004547e-01 1.17921671e-02 -5.33237047e-02 3.10913697e-02 -4.56742756e-02 1.39157161e-01 1.34461984e-01 -1.39446154e-01 -1.06666442e-02 5.47199436e-02 1.54365882e-01 -1.82562526e-02 3.66330035e-02 1.22653171e-01 1.58422172e-01 -9.95743647e-03 7.19889626e-02 2.00948253e-01 -4.61191265e-03 -2.17763752e-01 6.90818578e-02 -1.86470389e-01 4.30285707e-02 -5.05399220e-02 -9.97835174e-02 -1.40127093e-02 -9.59907845e-02 -1.24975353e-01 -2.97176535e-03 -2.05768213e-01
-2.10573986e-01 -1.86212193e-02 -5.62859438e-02 -1.43282846e-01 -4.57107453e-05 1.29966304e-01 1.69399291e-01 1.36277393e-01 -1.45411983e-01 1.32658824e-01 2.50003695e-01 5.26307933e-02 -2.42207218e-02 1.94375888e-02 -1.76008586e-02 7.32733011e-02 1.34232163e-01 -1.22665361e-01 -1.80153564e-01 5.88966766e-03 6.86021894e-02 -7.29521066e-02 7.67980749e-03 -1.66227996e-01 1.80315167e-01 5.03720120e-02 1.97321817e-01 -1.96907312e-01 -4.38032411e-02 -1.67424649e-01 1.08319215e-01 4.27281559e-02 -7.89360330e-02 5.79422824e-02 -6.82927854e-03 1.06197089e-01 7.56825358e-02 -2.10566446e-01 -2.45129988e-02 -1.04902528e-01 1.58840626e-01 1.23778135e-01 7.08394349e-02 1.63861569e-02 -8.12784135e-02 -8.46044049e-02 -4.48835529e-02 1.05568608e-02 9.30631757e-02 -1.29694104e-01 1.02040051e-02 1.17359266e-01 -1.74465403e-01 -1.78010851e-01 1.49344385e-01 1.45860970e-01 1.83616534e-01 -2.25235090e-01 1.63256824e-02 -2.11054608e-01 -5.58181740e-02 -2.29813293e-01 1.66670442e-01 -1.16387591e-01 8.67821276e-02 9.17357355e-02 1.31026834e-01 -1.34461120e-01 1.09422728e-01 -9.86957029e-02 2.79367957e-02 -1.86154649e-01 1.69250563e-01 8.89260694e-02 2.88844369e-02 -1.59869775e-01 -8.00499842e-02 -6.37054965e-02 -1.11861609e-01 7.74788037e-02 -1.20885499e-01 -7.27909207e-02 -1.75631344e-02 -9.52043906e-02 -8.75362456e-02 1.85062081e-01 -6.98775873e-02 -1.30311279e-02 5.34640662e-02 -1.02056533e-01 1.75839350e-01 -4.50883321e-02 8.76436234e-02 -2.24208504e-01 1.33322224e-01 -8.62549804e-03 -1.51759163e-01 1.06239185e-01 2.39093862e-02 -1.78971693e-01 7.76426271e-02 7.64726698e-02 6.43092021e-02 -7.22326562e-02 9.23190564e-02 -1.08110368e-01 2.80905794e-02 -1.01321936e-01 -4.80396636e-02 9.23133716e-02 1.05857506e-01 -6.46071211e-02 -1.66320086e-01 -4.05474454e-02 1.75188765e-01 -1.30607545e-01 -1.06003217e-01 -1.86260104e-01 1.72450721e-01 1.52383283e-01 1.53243961e-02 -1.55239344e-01 4.74203285e-03 8.33498016e-02 -8.11813772e-03 5.98212145e-02 1.13667376e-01 -1.61370799e-01
-4.65537235e-02 1.21785983e-01 1.35114759e-01 5.33664189e-02 -2.98845582e-02 -1.98064774e-01 -6.36228323e-02 -1.47790536e-01 5.27205132e-03 -1.50591852e-02 1.10904314e-01 7.79046863e-03 3.51842977e-02 -4.12754342e-02 1.13264881e-01 1.69068441e-01 -1.43990070e-01 2.98049450e-02 1.11346133e-01 -1.63105980e-01 -9.26770493e-02 -1.18727349e-01 4.12414968e-02 9.61876586e-02 1.38218135e-01 1.11178439e-02 4.01710123e-02 -2.30426386e-01 1.40209913e-01 -1.00324117e-01 -5.03961481e-02 9.82471853e-02 1.90646663e-01 3.83471213e-02 -1.28463209e-02 -1.05891608e-01 4.13148385e-03 6.29527867e-02 -1.44476473e-01 3.77900340e-02 -1.15311816e-01 7.29673207e-02 4.69018184e-02 -1.20662808e-01 -8.31222534e-02 -5.68068214e-02 1.33977920e-01 -1.34660468e-01 1.18926339e-01 -3.63381580e-02 2.74034180e-02 -1.40489891e-01 -2.62426317e-01 -1.17383927e-01 -8.51532444e-02 -2.03503668e-01 5.71719818e-02 1.99708879e-01 -3.25855725e-02 -1.88316822e-01 1.67643696e-01 -6.65089190e-02 -1.59706965e-01 3.27971503e-02 -2.33847573e-01 9.03329477e-02 1.17913194e-01 1.20513499e-01 -5.98682649e-03 -9.77195799e-03 -1.40848950e-01 2.91274078e-02 1.05170280e-01 1.71249613e-01 5.60987890e-02 -1.64438531e-01 1.23579942e-01 1.26247806e-02 -3.68311740e-02 -5.17980801e-03 8.16977322e-02 2.06195400e-03 6.15594909e-02 -1.10903271e-01 -2.12227970e-01 -8.32495913e-02 2.01767124e-02 -1.06612325e-01 1.19578221e-03 -1.16854712e-01 -8.93867910e-02 -4.39858697e-02 -1.25854075e-01 3.37261856e-02 1.98154032e-01 -1.96212813e-01 1.06400922e-01 -1.91631079e-01 -2.05932423e-01 -1.30648807e-01 9.56956446e-02 7.23456815e-02 -1.33929864e-01 1.73408777e-01 6.97829649e-02 1.30218431e-01 -1.01498663e-01 -1.95390405e-03 -9.55762640e-02 -1.71554878e-01 -1.64652884e-01 2.34345347e-02 -1.20516762e-01 -1.07470900e-02 -8.03067163e-02 1.21088168e-02 -5.28155547e-03 7.90509731e-02 1.45653635e-01 1.32613227e-01 1.91474155e-01 1.44182488e-01 7.73248598e-02 1.32288441e-01 1.12862587e-01 -1.89099938e-01 3.25098857e-02 -9.59827751e-02
8.48708302e-02 2.02733595e-02 -1.56319186e-01 7.97829684e-03 1.93926558e-01 -6.07619472e-02 -1.54411122e-01 -1.60017312e-01 7.89819062e-02 -1.85173959e-01 -6.97318539e-02 -6.42651692e-02 1.18141547e-01 -2.82055084e-02 -8.74491334e-02 1.61915749e-01 1.72678053e-01 1.10051811e-01 -1.96990430e-01 7.04364032e-02 -4.12295274e-02 1.99690461e-01 2.59134988e-03 5.47770448e-02 -2.09714726e-01 7.91765973e-02 1.13251060e-01 -1.88788384e-01 2.41545402e-02 2.61702657e-01 5.76155968e-02 -1.67605728e-01 7.43486211e-02 -6.69020414e-02 1.63710937e-01 -1.13406546e-01 1.69012427e-01 -7.90616125e-03 -7.87881315e-02 4.87854071e-02 -1.66434303e-01 -2.59200968e-02 6.78025419e-04 -1.12171415e-02 7.13358633e-03 -1.27339408e-01 -1.55969858e-01 -8.28695819e-02 8.05379003e-02 -9.88301039e-02 1.31837195e-02 2.16161773e-01 -1.50237471e-01 1.38686821e-01 1.60947651e-01 -2.10320815e-01 -9.81953219e-02 -1.72007248e-01 -2.01253846e-01 2.06965595e-01 -9.25809741e-02 -1.06144682e-01 -3.43746245e-02 1.01911709e-01 8.62006284e-03 7.22348457e-03 -2.05401123e-01 -1.17075697e-01 1.14458635e-01 -1.91256061e-01 -4.44428883e-02 8.67681345e-04 2.31243204e-02 1.93709686e-01 -1.49889857e-01 -1.77968979e-01 3.86032835e-02 1.69951946e-01 -1.66985542e-01 3.41531709e-02 -1.89301535e-01 2.25318745e-02 -1.45511150e-01 1.10629179e-01 -8.28330517e-02 -3.74489203e-02 -9.48335603e-02 7.60685056e-02 1.11505717e-01 -6.65793717e-02 -1.66065291e-01 -8.16966370e-02 1.58602223e-01 1.28012702e-01 7.36776218e-02 -1.06838442e-01 1.43910721e-01 1.96912736e-01 -1.50396705e-01 1.05347543e-04 -1.55261546e-01 1.09987706e-02 -1.31867602e-01 8.65591690e-02 1.40401840e-01 1.60698026e-01 1.47561148e-01 -1.73702300e-01 -1.03020921e-01 1.38997063e-01 1.64007992e-01 -1.10008687e-01 -3.39547321e-02 5.11275642e-02 -2.16776598e-02 1.26235619e-01 1.94334388e-02 -1.55678824e-01 9.97486040e-02 -1.18667170e-01 -2.05434203e-01 -1.11384608e-01 8.63518417e-02 1.34684205e-01 -1.20236717e-01 -1.21110730e-01 4.27945219e-02 1.04814015e-01
-2.55449545e-02 -1.75439030e-01 7.77464435e-02 1.63628265e-01 6.95978925e-02 1.34099424e-01 -5.78622967e-02 8.35492909e-02 -1.64392635e-01 -1.19340375e-01 1.31323621e-01 1.62297368e-01 -1.05899394e-01 2.19604582e-01 4.88370918e-02 2.33223289e-01 -3.56615870e-04 1.19982772e-01 -8.99343118e-02 -2.30406731e-01 -2.58691143e-02 1.69605657e-01 4.26575094e-02 1.92156792e-01 -3.44173461e-02 -1.70079172e-01 -9.61763114e-02 -1.86563596e-01 2.67414693e-02 -1.36775030e-02 -7.47789368e-02 -2.13773623e-01 8.42825174e-02 -1.61045790e-01 -5.94196469e-02 7.54775759e-03 -7.64817521e-02 -1.52323097e-01 5.98825142e-02 -3.42347771e-01 1.18271276e-01 2.08767921e-01 -8.63023475e-02 6.06620824e-03 -5.12443520e-02 1.77744672e-01 -6.33407906e-02 2.09360883e-01 -1.00870475e-01 2.24762410e-02 -6.28860071e-02 -6.51244223e-02 3.18868719e-02 4.02012691e-02 -2.09328905e-01 -2.17738748e-01 -9.69580933e-03 -3.19657803e-01 -1.89614728e-01 4.26593460e-02 1.66383088e-02 4.47642282e-02 -2.41631642e-01 5.19935191e-02 -7.35017955e-02 -1.53945638e-02 -1.85529664e-01 -1.22557707e-01 1.02563627e-01 -5.51938191e-02 -1.06134705e-01 1.96307436e-01 -2.11215075e-02 -1.03543170e-01 1.59480095e-01 -1.43784299e-01 7.52269104e-02 -5.24818003e-02 -1.69755548e-01 -3.48766334e-02 3.51982377e-02 1.05576195e-01 2.27717072e-01 -1.88488424e-01 2.67541055e-02 -2.18884628e-02 3.02779563e-02 2.27573123e-02 1.63296521e-01 1.54294774e-01 -1.36637613e-01 -1.27014473e-01 -1.74993321e-01 5.92499785e-02 8.97333547e-02 5.02997041e-02 1.23742372e-01 1.05014749e-01 5.78554645e-02 -1.79818422e-01 -4.06321287e-02 -1.43344313e-01 -1.70680892e-03 1.67348474e-01 9.13095623e-02 1.78745732e-01 -1.26619428e-01 -1.11533031e-01 6.79067299e-02 -2.18072802e-01 -1.49346679e-01 -6.22612983e-02 -3.57412919e-02 -1.77206323e-01 1.85393617e-02 -1.99481606e-01 -1.46393016e-01 -2.15299308e-01 1.96117178e-01 -1.27300486e-01 -2.15316519e-01 1.25969365e-01 1.00832030e-01 -1.27328997e-02 -4.84550484e-02 7.47498590e-03 -1.15641922e-01 9.55589041e-02
-1.32196233e-01 8.72215331e-02 -1.02979615e-01 -7.17122778e-02 -8.87514427e-02 -3.72698437e-03 -3.72549780e-02 3.14852931e-02 -1.43547833e-01 -1.68922275e-01 1.36762992e-01 5.90148792e-02 2.47305676e-01 -1.49891913e-01 -4.26620282e-02 6.97932541e-02 9.18497071e-02 -1.56100675e-01 5.97403459e-02 1.60248615e-02 -2.02909648e-01 -5.05701192e-02 -1.54966354e-01 7.06139486e-03 -1.13387935e-01 -1.43545777e-01 -7.27643594e-02 7.58207366e-02 -2.18097404e-01 -9.19350907e-02 1.64245978e-01 5.42226098e-02 3.01934835e-02 7.44862854e-02 1.58899799e-01 5.88212498e-02 -1.04865141e-01 -9.45735499e-02 1.75283328e-01 1.10901095e-01 1.11452073e-01 2.50492636e-02 -1.28395766e-01 -1.36913314e-01 -7.82545730e-02 7.35333795e-03 -3.04078422e-02 1.71358958e-01 1.05501503e-01 -4.22958545e-02 1.41923517e-01 -8.80870000e-02 -9.21821520e-02 7.30326921e-02 8.53030086e-02 -2.06379697e-01 -1.53179839e-01 -5.67922816e-02 -8.91714990e-02 1.89844351e-02 1.03038929e-01 1.63090259e-01 1.39230296e-01 1.26334168e-02 -1.47058330e-02 4.73148264e-02 1.10724986e-01 1.90860257e-01 -2.25087389e-01 -9.64128673e-02 -8.60945415e-03 -3.15928785e-03 -1.43359318e-01 4.52392958e-02 3.47219631e-02 -1.49803534e-01 2.28305925e-02 -8.98233056e-02 -2.48130690e-02 -9.63809937e-02 -1.89139277e-01 -4.42994200e-02 -2.11500581e-02 2.41096299e-02 -1.70616642e-01 1.02957517e-01 4.04179245e-02 1.28097951e-01 -1.17766252e-02 3.88038196e-02 -5.24883643e-02 -1.07212678e-01 -1.18267179e-01 1.46206900e-01 1.07183501e-01 -7.89331868e-02 -9.37192813e-02 -7.29734227e-02 -2.26985827e-01 1.10605039e-01 7.73579031e-02 3.88283259e-03 9.57180709e-02 7.10954238e-03 -1.38680071e-01 5.83442152e-02 8.41127113e-02 7.89656639e-02 1.77003726e-01 -1.75314799e-01 -1.61256552e-01 5.21777868e-02 9.00648609e-02 2.64842380e-02 1.98583920e-02 -2.40231194e-02 -3.05613074e-02 -7.71311745e-02 -7.45940357e-02 7.36185163e-02 2.74866889e-03 -1.91377729e-01 9.56580043e-02 -9.16342530e-03 8.56429338e-02 -1.09420106e-01 -9.45132077e-02 -8.35122243e-02
6.24077171e-02 1.48861572e-01 1.85798049e-01 -1.59700081e-01 2.04694569e-01 -3.58004775e-03 -4.39660959e-02 4.30003852e-02 1.49225844e-02 9.87061560e-02 -9.17944983e-02 1.14912674e-01 -2.20725924e-01 -1.15639091e-01 1.29403844e-01 1.23072781e-01 1.19111016e-01 -2.02303618e-01 -1.46464467e-01 -9.09445882e-02 9.93149430e-02 4.26600911e-02 -1.34248942e-01 -4.18292470e-02 -1.80475295e-01 1.24172479e-01 7.25559443e-02 -4.10769023e-02 -4.47523361e-03 6.70483783e-02 -2.03182906e-01 1.01733200e-01 -2.05686584e-01 -1.62350759e-01 -1.63702235e-01 1.77337602e-01 -1.20742351e-01 -1.00983523e-01 1.04209833e-01 -1.09001309e-01 2.83369590e-02 9.60752144e-02 -6.72319606e-02 -7.82593042e-02 1.72723189e-01 1.13902867e-01 2.89124902e-02 -5.75067587e-02 -1.40939802e-02 -1.57471538e-01 2.50917282e-02 1.17045529e-01 1.89557433e-01 -1.36529520e-01 -3.71640101e-02 -3.54659446e-02 1.04746716e-02 -5.07922955e-02 -2.00476333e-01 1.67821109e-01 -5.84946424e-02 -2.03250408e-01 -7.93316513e-02 1.65478513e-01 1.68595657e-01 -6.71189204e-02 3.99034880e-02 -6.67639077e-02 1.47473782e-01 1.15456089e-01 7.14332908e-02 -1.34435028e-01 -1.85714200e-01 2.01227725e-01 1.39548093e-01 -3.90762873e-02 4.94691804e-02 -1.43183582e-02 5.21692308e-03 6.23045750e-02 1.83140382e-01 6.41439576e-03 -1.00101180e-01 1.39645264e-01 -1.58886820e-01 1.16598472e-01 -1.91852152e-02 -4.18838374e-02 2.20203325e-01 4.89265397e-02 -1.05292045e-01 -1.17745958e-01 7.70897195e-02 2.00787988e-02 -2.01307222e-01 -1.19500300e-02 -1.01322129e-01 1.36261269e-01 -1.56554297e-01 -6.42492771e-02 -9.05418769e-02 8.28988999e-02 1.68233335e-01 -1.54483980e-02 7.93303177e-03 -3.36502567e-02 7.84671530e-02 1.08590141e-01 -3.42403054e-02 1.81403667e-01 -1.13926329e-01 -2.11921092e-02 1.04065523e-01 9.05070901e-02 -5.46868406e-02 -6.86934143e-02 5.53557910e-02 2.93764994e-02 1.23643698e-02 -1.83934122e-01 -6.44157454e-02 2.02861711e-01 -6.71386719e-02 5.24786003e-02 3.75758633e-02 -1.31921321e-01 1.61634833e-01 -3.03054973e-02
1.12377971e-01 1.62921801e-01 -1.19525038e-01 -1.00536905e-02 -6.01182207e-02 1.19394191e-01 5.78365140e-02 5.04721217e-02 -1.87145293e-01 1.13646209e-01 -1.31501323e-02 1.72984883e-01 8.08932260e-02 -3.17073315e-02 2.14746013e-01 2.52001379e-02 -5.61132506e-02 5.94820566e-02 -1.46475121e-01 5.52872568e-02 8.10149014e-02 1.27718806e-01 -1.56144693e-01 -2.67543998e-02 -5.50365075e-02 -1.79154307e-01 -2.02068776e-01 1.34689301e-01 -1.29730955e-01 -6.01093471e-02 -9.16999206e-02 1.43218473e-01 -1.02681406e-01 1.19994491e-01 -6.61413372e-02 1.24047091e-02 1.17926210e-01 5.02769463e-02 1.97415009e-01 -7.54382983e-02 -1.16639003e-01 1.29230410e-01 1.60430409e-02 1.94922462e-01 2.93310583e-02 1.40863448e-01 -2.16867447e-01 -2.13851780e-03 -1.99596778e-01 1.12758860e-01 5.64954914e-02 7.90559947e-02 7.45371953e-02 4.03461829e-02 -7.90605024e-02 -8.24707374e-03 1.40430599e-01 1.12655155e-01 -1.00133933e-01 -4.91456687e-02 1.48927391e-01 3.13279666e-02 1.83977827e-01 1.03413500e-01 -4.81629707e-02 4.36322279e-02 1.95048794e-01 -9.94311459e-03 2.04109475e-01 -1.70997694e-01 1.18082099e-01 1.82211772e-01 -4.84978631e-02 1.00673893e-02 -1.87663496e-01 1.33086994e-01 5.51931299e-02 3.15241888e-02 -5.00679985e-02 -1.20669857e-01 1.61538064e-01 1.31916642e-01 1.05624363e-01 -1.64843351e-02 -6.69864193e-02 9.39845368e-02 1.11783540e-03 1.51374698e-01 -5.63611975e-03 -1.77160390e-02 2.01497659e-01 -1.14632785e-01 1.15566947e-01 1.75652370e-01 -1.42314002e-01 -4.50732261e-02 -9.23573747e-02 -4.05571647e-02 5.77886291e-02 5.99904880e-02 -1.97794944e-01 1.39151320e-01 -5.60787655e-02 -9.96288061e-02 -2.58507170e-02 -1.36765286e-01 -1.66314542e-01 -2.12970991e-02 1.27849311e-01 -2.97317784e-02 -3.03702392e-02 -1.46870539e-01 5.42305186e-02 -1.71891406e-01 -9.28601623e-02 6.55320659e-02 -1.16330214e-01 1.49037585e-01 -1.29916519e-01 9.97955427e-02 1.26232982e-01 1.48179740e-01 -1.62314661e-02 -4.89837229e-02 1.23599790e-01 -1.03849947e-01 -8.32346901e-02 2.86262296e-02
-1.57846972e-01 1.62139863e-01 -1.56848237e-01 7.40507320e-02 -2.24178240e-01 -7.47259930e-02 -9.73350033e-02 -1.84227489e-02 3.55043635e-02 -1.88158602e-01 -1.43207803e-01 3.44829494e-03 -9.03746020e-03 -1.18974755e-02 1.30027428e-01 7.82719329e-02 1.71151608e-01 -1.56818345e-01 -1.65121436e-01 -2.49912962e-01 -7.69321695e-02 -5.57500087e-02 6.53702319e-02 -3.46950926e-02 -1.33555666e-01 -1.72686711e-01 1.54058943e-02 9.46824253e-02 -1.97340343e-02 7.95672014e-02 -2.36896589e-01 -6.66257367e-02 -1.23847201e-01 8.73993710e-02 -1.65511027e-01 -1.65270165e-01 -9.06021819e-02 -1.07085243e-01 1.12961233e-01 2.03053817e-01 -2.18953624e-01 -1.76231086e-01 -1.58888593e-01 -2.87050400e-02 -5.27149737e-02 -1.40199780e-01 -1.66716829e-01 1.13597684e-01 1.55945092e-01 -3.90543453e-02 -1.21197477e-01 -3.77501585e-02 -8.85268077e-02 5.73264882e-02 -2.90203020e-02 1.62067294e-01 1.89354360e-01 5.47423512e-02 -1.93836108e-01 -1.11676194e-01 1.75289780e-01 1.44736260e-01 -1.89463630e-01 4.59725596e-02 1.67842790e-01 -1.32294923e-01 1.53225780e-01 -1.87632978e-01 -7.56821409e-02 1.88475505e-01 -2.59521268e-02 -3.60816857e-03 -2.08985955e-01 -1.49040833e-01 1.67806849e-01 7.77918622e-02 -1.00907050e-02 -1.69730678e-01 -1.33011132e-01 -9.95505750e-02 5.63141592e-02 5.31057566e-02 7.82583803e-02 -8.79737660e-02 4.14295606e-02 -1.83689713e-01 -1.27374068e-01 1.22003317e-01 1.94499865e-01 2.18772724e-01 1.31410271e-01 -1.01783037e-01 -4.23222519e-02 2.55523771e-01 1.58317953e-01 -4.31438051e-02 -1.35313407e-01 -1.05863959e-01 -1.20692410e-01 1.10756315e-01 -7.33507872e-02 -4.55599502e-02 -2.02318296e-01 1.45014763e-01 1.22973315e-01 1.12043686e-01 1.45592555e-01 1.63784683e-01 7.68793672e-02 3.49184684e-02 -1.65850118e-01 7.80777708e-02 -8.53135809e-02 3.23148593e-02 -1.23432595e-02 -6.26930073e-02 2.18434915e-01 1.70695156e-01 1.38488144e-01 -1.56169996e-01 9.12069753e-02 -2.96048704e-03 5.42604029e-02 7.95468464e-02 9.68194306e-02 5.05124107e-02 -4.35794406e-02 -2.79390570e-02
4.62107882e-02 -1.14364408e-01 -2.04512253e-01 -1.04961261e-01 -5.49978279e-02 6.04940057e-02 -2.97326874e-02 -1.41637534e-01 3.18092331e-02 1.37241572e-01 -3.32148261e-02 -2.19552051e-02 -2.14321047e-01 3.26493336e-03 -1.01439036e-01 5.00125587e-02 -1.11388959e-01 -9.03863534e-02 -1.70922324e-01 -8.96324664e-02 1.32889017e-01 -4.37313877e-02 9.59919542e-02 8.22631791e-02 1.42690644e-01 -9.60524380e-02 1.10861277e-02 1.45767644e-01 1.58708736e-01 5.91763519e-02 -1.32614419e-01 1.31734729e-01 -1.87203914e-01 -1.23138443e-01 -1.65452316e-01 -1.38079867e-01 -1.18049160e-01 9.50007960e-02 1.75368637e-01 -1.77245121e-02 -1.46299958e-01 1.02740973e-01 1.30087689e-01 1.56912655e-01 -5.62477820e-02 -1.76581852e-02 3.26914154e-02 8.49474072e-02 -1.74862444e-01 1.49969533e-01 -2.24314079e-01 -6.06947206e-02 -1.57456562e-01 -1.73790514e-01 -8.58429074e-02 1.69198379e-01 -1.33997887e-01 9.27847344e-04 1.06876470e-01 -2.18180627e-01 -2.08859190e-01 -1.25818044e-01 -9.26847160e-02 1.90010011e-01 7.73346797e-02 -1.59746185e-01 3.66914528e-03 1.59713343e-01 9.64040030e-03 -6.37669563e-02 2.90161874e-02 -1.63261339e-01 -1.16731748e-01 -1.50354803e-01 1.05116971e-01 -1.15387343e-01 -6.72833323e-02 1.37673751e-01 -7.64349699e-02 1.02412485e-01 -4.24788296e-02 -6.37416542e-02 1.56843618e-01 9.00748000e-02 -1.40974373e-01 -7.90662020e-02 1.40189424e-01 -9.23314840e-02 -3.75429019e-02 -3.58743481e-02 -5.62743237e-03 -7.35283047e-02 2.00607255e-02 1.25621900e-01 1.57988995e-01 -1.66841790e-01 7.64264837e-02 1.22998446e-01 3.52585651e-02 1.70238659e-01 1.38435587e-01 -1.55542478e-01 -5.64512722e-02 -1.89937159e-01 -2.52197415e-01 5.56362569e-02 -3.93840261e-02 2.31806394e-02 8.22865441e-02 -5.88294789e-02 -2.41639018e-02 -9.01160389e-02 -2.73695707e-01 -7.94698149e-02 1.47430271e-01 5.51863983e-02 -4.65638824e-02 1.17475294e-01 1.56101853e-01 6.82747513e-02 -3.41872610e-02 2.18509305e-02 -1.09089548e-02 -5.36846966e-02 -3.04592717e-02 -3.48932296e-02 -6.04851209e-02 -5.14331423e-02
1.70295402e-01 -2.05178291e-01 -1.50002137e-01 -3.19594964e-02 1.92649350e-01 5.90810776e-02 -8.02647099e-02 1.10022359e-01 5.83476089e-02 9.53940824e-02 1.18978210e-01 -8.43693614e-02 1.43444210e-01 -1.52892515e-01 -1.67741552e-01 1.34420976e-01 -6.81863502e-02 4.27984707e-02 8.16146508e-02 -1.91136226e-01 1.82826653e-01 -8.79647881e-02 -9.90904793e-02 -1.21895373e-01 4.95611923e-03 7.95926750e-02 1.50603838e-02 5.84145784e-02 1.07625566e-01 1.80428978e-02 1.70462597e-02 8.07465017e-02 -7.75359869e-02 -1.33704722e-01 -1.15803722e-02 1.25782238e-02 1.10459350e-01 2.16232911e-01 8.44815820e-02 -3.16635147e-02 7.60939121e-02 1.31387174e-01 1.25562087e-01 1.53397143e-01 1.58064589e-01 1.88998714e-01 5.95959872e-02 7.23600537e-02 1.50325716e-01 -3.96865467e-03 1.57744452e-01 1.34385675e-01 1.37563469e-02 -1.15739763e-01 8.45620185e-02 1.64358273e-01 1.65336549e-01 -2.22311333e-01 -2.12158084e-01 4.07418758e-02 1.46709774e-02 1.40344143e-01 -2.26357013e-01 4.69361022e-02 2.41874829e-01 -9.69272666e-03 1.84603985e-02 7.84804001e-02 1.11529551e-01 1.92849264e-01 4.40096520e-02 -1.93413883e-01 8.43585879e-02 4.18570153e-02 1.80444241e-01 -1.88247815e-01 9.38776433e-02 1.70200139e-01 1.77580774e-01 1.55463833e-02 1.59689695e-01 -1.42168924e-01 -1.59544766e-01 -3.59610543e-02 1.18298136e-01 -3.30389626e-02 -1.70356646e-01 6.86037913e-02 1.94836363e-01 6.99861944e-02 -1.69025451e-01 -1.68090276e-02 -4.01783139e-02 -8.87293369e-02 1.84819892e-01 8.11837390e-02 5.90512417e-02 -1.18218608e-01 -1.46986008e-01 -2.56643057e-01 1.42257690e-01 -2.18694471e-02 -1.20322391e-01 1.39420986e-01 1.14520751e-01 4.55208272e-02 -3.28496210e-02 -6.67827800e-02 8.94291475e-02 7.54534528e-02 -1.34101525e-01 -1.12149097e-01 -1.30070716e-01 8.91246870e-02 6.66849017e-02 1.46936893e-01 1.24090157e-01 2.09853709e-01 -1.35680377e-01 -2.50999704e-02 8.06767642e-02 -1.09986238e-01 2.36247540e-01 -1.50898069e-01 -4.78778630e-02 -1.10317215e-01 1.93721816e-01 -6.57105073e-02
-1.57936603e-01 -1.71570063e-01 -1.45091400e-01 2.20560521e-01 -3.05636991e-02 2.18779504e-01 7.56987184e-02 1.61771551e-02 -1.40375838e-01 -1.00404175e-03 -7.09560066e-02 -1.62957639e-01 1.46833132e-03 1.35679066e-01 -1.28154129e-01 1.70322046e-01 4.38098162e-02 1.22111507e-01 9.67677087e-02 2.74155103e-02 -1.47540241e-01 -1.33203819e-01 1.94390327e-01 -9.95741561e-02 -2.04584412e-02 1.36354685e-01 3.33026499e-02 -4.13456559e-02 2.83266567e-02 2.50496775e-01 -1.91380978e-01 1.46010026e-01 1.08260103e-01 -2.99554225e-03 -1.67588428e-01 2.31904685e-01 -1.29917473e-01 -2.22229600e-01 -1.95381671e-01 -4.31246571e-02 -6.24922104e-02 1.96854338e-01 -1.40346944e-01 2.12023016e-02 2.73155496e-02 1.80773184e-01 1.48508742e-01 1.73413053e-01 2.83737946e-03 2.58050803e-02 -2.82105785e-02 5.92276454e-02 1.68012485e-01 -5.87812811e-02 1.27043441e-01 3.56771722e-02 -8.93525481e-02 1.24358341e-01 9.16147307e-02 1.53313860e-01 1.83418840e-01 -1.62980586e-01 -3.69212329e-02 2.80796122e-02 -2.26180077e-01 -1.63200378e-01 3.69170792e-02 -4.50509340e-02 1.93003312e-01 7.63543770e-02 -4.20524403e-02 1.85961291e-01 1.19101733e-01 -1.82007328e-01 -1.96824253e-01 8.69489759e-02 -1.55618802e-01 -6.39371127e-02 1.14955962e-01 1.08232386e-01 -1.43138051e-01 1.32269552e-02 2.06321910e-01 2.12334096e-01 1.94696918e-01 -4.97376658e-02 -1.82818230e-02 -6.87984936e-03 -1.41460121e-01 -9.88863185e-02 1.37594178e-01 4.23197336e-02 7.44382814e-02 6.51278272e-02 1.49499953e-01 -1.40984178e-01 1.41411051e-01 -1.75608844e-02 1.02844909e-01 1.60640702e-01 1.03384532e-01 -3.56076099e-02 5.01866750e-02 -1.22139491e-01 -2.28296053e-02 -9.06490237e-02 1.56448558e-01 -9.57670882e-02 6.39592633e-02 1.67275429e-01 1.19083030e-02 1.93438143e-01 -1.11351684e-02 1.02771744e-01 -7.75375143e-02 1.83922708e-01 -3.91765535e-02 1.80933371e-01 7.53881484e-02 -2.01493293e-01 -9.41124260e-02 4.15315591e-02 -8.75831172e-02 -5.95826842e-02 7.02133253e-02 9.93185788e-02 -1.88144326e-01 4.25382331e-02
1.67100057e-01 1.33769706e-01 3.14994566e-02 1.05695769e-01 -1.87600359e-01 -2.14135423e-01 -1.54674739e-01 -1.35183349e-01 -1.24422289e-01 1.35454684e-02 -7.14941323e-02 -1.26977399e-01 -4.88193147e-02 9.48480219e-02 1.20046511e-01 -7.87493363e-02 6.15009479e-02 -1.19609229e-01 2.55498961e-02 -3.29164825e-02 9.52707157e-02 -6.58640340e-02 -1.92013323e-01 -6.86275512e-02 -3.54009718e-02 5.01894066e-03 5.94431236e-02 2.20184460e-01 -9.02834088e-02 -2.00582713e-01 4.35314402e-02 1.38994902e-01 5.37948236e-02 -1.84140027e-01 -5.77553287e-02 2.32506380e-03 6.34669811e-02 -1.44460620e-02 -1.33574709e-01 -8.94574523e-02 3.14612091e-02 1.06511734e-01 -1.42495468e-01 9.42919124e-03 -1.60543084e-01 1.89660475e-01 1.58049509e-01 1.56061817e-02 -2.04642087e-01 -1.84055537e-01 -4.38537821e-02 -1.57722412e-03 7.99420774e-02 3.73458862e-02 -1.90938190e-01 1.45797089e-01 -1.02647685e-01 -8.88427645e-02 -1.26961702e-02 -5.48310019e-03 1.08915180e-01 -1.21144257e-01 -9.87648666e-02 -1.18157407e-02 -1.23681568e-01 2.02813014e-01 -9.85298008e-02 1.32642046e-01 -2.05645829e-01 -1.08968019e-01 -9.73892361e-02 -8.60427618e-02 4.89403270e-02 1.09413005e-01 1.60951972e-01 7.95327798e-02 1.11345574e-01 -1.50649354e-01 -2.08056010e-02 -1.83549508e-01 -2.04642773e-01 -1.56969696e-01 8.84920824e-03 2.05003068e-01 -2.52397984e-01 -1.40804961e-01 -1.38130412e-01 8.36248100e-02 1.76037565e-01 1.76239118e-01 -1.05402768e-01 1.33491140e-02 -7.38879964e-02 -2.34450251e-01 1.13076977e-01 -9.02809203e-02 1.58415381e-02 1.44384310e-01 -1.55794859e-01 6.23153970e-02 -4.42076772e-02 -8.17807987e-02 3.62007096e-02 4.55061346e-02 -1.38626978e-01 -1.18969195e-01 1.75304413e-01 -1.34290591e-01 -5.39223142e-02 -1.10474780e-01 -2.13120639e-01 -1.75731461e-02 1.42334327e-01 -7.20318928e-02 2.14148208e-01 8.42003375e-02 7.23322853e-02 6.11912645e-02 4.91901971e-02 5.11744954e-02 1.39253229e-01 -5.41819707e-02 -2.26410940e-01 -1.99758857e-02 -6.00499138e-02 1.66329533e-01 -2.94098780e-02 -1.44280821e-01
-5.28440140e-02 -1.68670133e-01 1.90573797e-01 6.37441948e-02 1.00949168e-01 -8.89371932e-02 3.94157209e-02 7.02872425e-02 8.20198506e-02 2.23156754e-02 -6.59333467e-02 -5.10775484e-02 1.84921801e-01 2.70260889e-02 1.43676564e-01 -2.15943903e-02 7.72571415e-02 -2.62515061e-02 1.84226722e-01 2.68452875e-02 -1.49808149e-03 1.08404368e-01 8.07864442e-02 1.04372405e-01 1.32349074e-01 1.40866891e-01 1.14265077e-01 -1.20466083e-01 5.68888411e-02 -1.41725510e-01 -6.14288561e-02 -2.07043529e-01 1.65017590e-01 1.63031876e-01 7.19092041e-02 2.10042000e-01 2.09008250e-02 2.93919202e-02 -7.41707310e-02 3.58284414e-02 1.69877913e-02 2.02402882e-02 4.89530526e-02 2.05504313e-01 -1.36669397e-01 -2.78063640e-02 1.72478288e-01 4.92976569e-02 -1.03669725e-01 -7.64816254e-02 1.87827751e-01 -1.39618412e-01 -3.38931270e-02 -4.62201759e-02 1.06270999e-01 2.27940053e-01 -9.36818048e-02 -8.61309096e-02 5.21753803e-02 1.19993761e-01 3.50560434e-02 -8.82079601e-02 1.08136408e-01 8.57790187e-02 -1.92757987e-03 -1.21412769e-01 1.53812632e-01 2.05989316e-01 -7.62042552e-02 -4.16220538e-02 7.96059817e-02 -1.65565535e-01 1.45376939e-02 1.31254286e-01 2.96673849e-02 1.36975273e-01 1.53298303e-01 -1.18925139e-01 1.32801354e-01 1.32615566e-01 1.81339711e-01 2.06936806e-01 -1.28884524e-01 -1.06595933e-01 1.43585518e-01 1.44362062e-01 1.64673910e-01 1.54205278e-01 4.03648382e-03 -3.86858471e-02 7.92180970e-02 -2.35547230e-01 4.76691872e-02 -4.72095311e-02 9.28353369e-02 -1.76538736e-01 1.25622034e-01 1.04193762e-01 8.69161636e-02 1.49709731e-01 3.33542302e-02 2.18579620e-02 -2.61258055e-02 1.74916416e-01 1.21985711e-01 7.52651095e-02 2.00072974e-01 1.98955178e-01 5.43574803e-03 4.40745950e-02 2.11422015e-02 1.47731304e-01 1.90490454e-01 -6.31922185e-02 -7.68202916e-02 1.83727279e-01 -9.74219292e-02 2.62125194e-01 -3.36704552e-02 -1.61882147e-01 1.32353067e-01 -1.84998289e-02 1.56431139e-01 -2.37316987e-03 7.63432458e-02 -2.06425160e-01 -1.51994318e-01 2.45311987e-02
7.71631449e-02 5.10134287e-02 1.39177861e-02 -7.55668953e-02 1.11051053e-01 2.29429573e-01 1.86599791e-01 -3.44003402e-02 -4.69489619e-02 1.63350135e-01 -5.81159517e-02 2.18677334e-02 5.48444726e-02 -1.86995476e-01 -2.07080200e-01 -1.08915746e-01 -1.45271182e-01 1.33914560e-01 4.28231992e-02 4.13553268e-02 -9.19899270e-02 -6.65033683e-02 4.28867973e-02 1.15233175e-01 -1.23208158e-01 -2.26032212e-01 -4.15255018e-02 -2.24383935e-01 6.19143434e-02 -5.92218749e-02 -8.21505859e-02 -1.37652367e-01 3.72128710e-02 9.33900550e-02 -3.74139175e-02 -5.63876629e-02 -6.81554601e-02 -1.18147902e-01 7.97333792e-02 -1.00628719e-01 4.54877540e-02 -7.44166374e-02 -1.65011317e-01 7.74850473e-02 8.07186291e-02 -1.26601040e-01 -1.04047403e-01 1.36376768e-01 7.30521753e-02 -1.69459566e-01 1.72581002e-01 -9.08588395e-02 1.36468947e-01 8.74098241e-02 2.88151652e-02 -9.40485224e-02 3.90122533e-02 -1.18295044e-01 8.31705108e-02 2.05458403e-01 -1.68276817e-01 1.99135080e-01 -1.50508940e-01 1.48738965e-01 -1.47264019e-01 -2.54601073e-02 6.38346002e-02 6.22584149e-02 -8.76150280e-02 6.58170581e-02 2.11100683e-01 1.28104255e-01 1.89548910e-01 4.02782075e-02 1.24677449e-01 1.18881218e-01 1.53470248e-01 6.89671263e-02 -2.75859646e-02 -1.17998108e-01 -1.11863948e-01 -4.63959128e-02 -8.58460665e-02 -1.44536152e-01 3.55927572e-02 -1.34447347e-02 -1.00352950e-01 -3.78420134e-03 5.70860738e-03 -9.05659571e-02 -1.67493403e-01 1.02779143e-01 -1.30790025e-01 1.56390965e-01 1.59852445e-01 -1.64544567e-01 -1.43216848e-01 -1.25262616e-02 8.91955122e-02 -2.07960889e-01 -1.73950437e-02 2.39611883e-02 -1.84186306e-02 1.34296924e-01 3.60069312e-02 -7.23957941e-02 2.97317840e-02 1.82131864e-02 -5.53825237e-02 -1.20388474e-02 1.20361224e-01 -9.87016931e-02 2.23432481e-01 1.30470559e-01 1.22293979e-02 -9.93276015e-02 -9.04541090e-02 5.22654019e-02 -1.04451984e-01 -1.25419781e-01 -1.07125543e-01 -1.07579477e-01 5.29597998e-02 8.89640525e-02 -1.71708867e-01 -2.05962405e-01 -7.05705881e-02 7.44141266e-02
-7.00441748e-02 5.29150553e-02 2.49751434e-02 -7.01289915e-04 -4.92094047e-02 2.43823025e-02 -5.70953749e-02 7.09140599e-02 -4.86345552e-02 2.81863362e-02 -4.68379371e-02 -3.58475349e-03 -1.79296270e-01 5.97882010e-02 -1.74599648e-01 5.14769070e-02 -4.50953990e-02 1.49359047e-01 -9.72666219e-02 8.63426328e-02 7.62906224e-02 -2.07536012e-01 -9.49869305e-02 -1.61728874e-01 -8.07537213e-02 -7.52965212e-02 6.19994774e-02 1.08095065e-01 -1.66685991e-02 7.11983144e-02 -1.55573115e-01 -1.56290770e-01 2.17156529e-01 4.33613844e-02 -1.18849643e-01 1.50339738e-01 1.01847053e-01 -2.97474694e-02 9.17803049e-02 -2.46247917e-01 8.48466754e-02 1.89065814e-01 1.12155706e-01 -1.40051171e-01 -5.31925708e-02 9.29721445e-02 1.60028175e-01 8.25720951e-02 -2.14496449e-01 -1.45754442e-01 -1.89056948e-01 -4.06699143e-02 -5.99257499e-02 8.83854330e-02 1.96502045e-01 6.74191490e-02 -1.16490815e-02 -1.78873941e-01 -3.69203165e-02 8.34110081e-02 -2.04226002e-01 5.59664108e-02 5.36207370e-02 1.20724447e-01 1.22162327e-01 7.14409724e-02 4.33301590e-02 -7.05631599e-02 -2.47858018e-02 8.64644721e-02 1.60049610e-02 -1.04009882e-01 3.23938951e-02 -9.06825811e-02 1.50580630e-01 -1.96897835e-01 -4.47114296e-02 -1.43117771e-01 6.17924966e-02 6.19089417e-02 -2.16526285e-01 2.18592003e-01 2.76030730e-02 -1.96385965e-01 -1.04583204e-01 -1.40501544e-01 -1.15337670e-01 4.56191786e-02 1.11279730e-03 9.04316604e-02 1.17143337e-02 -3.28824557e-02 -1.70994923e-01 1.22883014e-01 -9.47420001e-02 -6.48045838e-02 1.18111558e-01 -5.51585667e-02 -1.37710467e-01 -6.10009544e-02 -1.17481008e-01 8.45302343e-02 1.35282040e-01 -1.10862143e-01 -3.82204279e-02 1.46012932e-01 1.88097715e-01 -1.84008092e-01 8.57236311e-02 -2.16849461e-01 -7.53777772e-02 8.80455673e-02 -1.45590678e-01 -4.07685079e-02 -6.29966781e-02 7.67506510e-02 -1.17258884e-01 -1.05423788e-02 1.44432753e-01 -1.51259348e-01 4.16632071e-02 1.09602153e-01 1.27082234e-02 -1.42614739e-02 -1.75520703e-01 -1.03086211e-01 -1.36118010e-01 -2.00437412e-01
1.65418878e-01 -9.64241326e-02 -1.52410597e-01 1.83103114e-01 7.79576153e-02 -5.46026304e-02 4.06045653e-02 4.22276324e-03 -7.11427163e-03 1.07827626e-01 -1.47659391e-01 -9.17546675e-02 -1.71912149e-01 -1.65762261e-01 -1.08867109e-01 1.08001918e-01 1.06219217e-01 -1.36495838e-02 -1.65244564e-01 -1.01876773e-01 2.19014302e-01 -9.74822417e-02 1.15602568e-01 1.27380565e-02 -1.47699207e-01 -2.14604989e-01 6.06239699e-02 -1.28329441e-01 -2.11136818e-01 1.61729187e-01 -2.11822107e-01 -1.29372969e-01 2.07492076e-02 -9.16462243e-02 -1.49685025e-01 7.69391377e-03 6.29523164e-03 -1.21696657e-02 2.34089896e-01 1.98077857e-02 1.21414162e-01 -8.29593018e-02 -1.39201775e-01 7.22464547e-03 7.28201419e-02 -1.10794134e-01 -1.19692832e-01 4.25030291e-02 1.56641662e-01 -5.18108495e-02 1.60291195e-01 1.39048681e-01 4.40585203e-02 -5.31507060e-02 -1.59805253e-01 1.48594100e-02 1.88238531e-01 -1.78781703e-01 -1.75390139e-01 -4.09229957e-02 2.17686534e-01 7.85788894e-02 -2.23189890e-01 1.41469076e-01 -1.01685278e-01 1.62664145e-01 2.22066626e-01 -8.80178735e-02 5.32599539e-02 2.03304544e-01 6.03265613e-02 -1.28623471e-01 -8.36768821e-02 1.00923829e-01 1.77351147e-01 2.43091837e-01 3.98249328e-02 -1.67808592e-01 1.89356238e-01 -2.13698089e-01 -2.22315893e-01 -1.13526776e-01 -1.14685819e-01 -2.10557058e-02 3.72475795e-02 -3.77047360e-02 -5.52217141e-02 -4.47442941e-02 -8.67214054e-02 -1.32811233e-01 -1.77709088e-01 -5.80659620e-02 -1.30025193e-01 -2.67879367e-01 -1.76789656e-01 -6.11537956e-02 -7.90756792e-02 1.37476012e-01 6.99514896e-02 -1.98376417e-01 2.04878792e-01 -7.11413994e-02 1.28996745e-01 1.13285370e-01 1.50175855e-01 1.15107961e-01 -1.34164244e-01 -5.09433597e-02 -1.66007996e-01 -1.37478173e-01 -1.57404214e-01 -6.33153087e-03 -2.87165660e-02 2.07911924e-01 -7.02601001e-02 1.46953404e-01 9.97065082e-02 1.13063842e-01 -1.85137931e-02 -1.46410361e-01 -1.76232427e-01 -7.62680620e-02 3.33964750e-02 -8.18190873e-02 3.28854509e-02 -1.22631937e-01 6.90010786e-02 1.78313643e-01
-1.05905168e-01 -2.79804431e-02 1.22201070e-01 1.18756577e-01 2.91904435e-02 -3.57904732e-02 -2.98840404e-02 1.86773222e-02 -1.26402825e-01 -4.05533351e-02 1.59122780e-01 -1.05026156e-01 -1.38293102e-01 -1.92323048e-02 1.47765964e-01 -6.53129146e-02 -9.49880481e-02 -9.25957859e-02 -7.13632479e-02 -2.15919241e-02 1.40140699e-02 2.95797326e-02 -2.27270015e-02 -4.67979647e-02 1.26108825e-01 1.44865215e-01 3.14905941e-02 1.31692007e-01 -1.25217056e-02 7.73718581e-02 3.62563282e-02 -1.72782823e-01 1.60638750e-01 -1.86576560e-01 1.21148480e-02 1.72175959e-01 1.45921007e-01 9.07633826e-02 7.62476400e-02 -1.10344134e-01 4.21137176e-02 8.48869011e-02 -2.04895902e-03 -6.14629835e-02 1.18301995e-01 -1.54447064e-01 1.97510630e-01 1.63578600e-01 -1.11436673e-01 1.57875746e-01 -1.02871813e-01 -1.29296526e-01 -1.13217928e-01 -1.70647457e-01 6.60621077e-02 8.76652002e-02 -8.97683352e-02 1.73333496e-01 1.51956454e-01 1.73226178e-01 -2.76659504e-02 -8.45536441e-02 -5.89512028e-02 1.19055651e-01 -1.07411623e-01 8.29975680e-02 1.14900425e-01 1.19703613e-01 -1.33180723e-01 7.17660934e-02 -1.61309749e-01 1.52361587e-01 -1.54664397e-01 5.49090877e-02 -1.93207875e-01 -1.96753159e-01 1.06371664e-01 -8.73744041e-02 -1.86646990e-02 -1.75683515e-03 -1.28229886e-01 -2.92724036e-02 2.25242577e-03 -2.44320914e-01 1.50640845e-01 -1.36380225e-01 -2.75804265e-03 -1.21113257e-02 -1.04029045e-01 2.08458267e-02 -4.90519665e-02 1.00530922e-01 -1.19030230e-01 5.24079241e-02 -2.04307005e-01 9.31991357e-03 -2.17536941e-01 -1.23066723e-01 -9.45772380e-02 -3.21269594e-02 -8.73060375e-02 5.84575236e-02 6.21937774e-02 1.10103577e-01 -1.81840047e-01 1.37209043e-01 -1.55070066e-01 -1.65052265e-01 -1.38937682e-01 -6.50922395e-03 -8.15789998e-02 5.55894934e-02 -1.29162580e-01 -7.40458891e-02 -1.15929551e-01 -5.73808514e-02 6.15065172e-02 -1.11508593e-01 -1.28277928e-01 -1.28129562e-02 7.35152960e-02 9.00619924e-02 3.82301733e-02 -1.24212965e-01 1.39914423e-01 -1.77936211e-01 -1.08901940e-01 -1.10001847e-01
-3.43145896e-03 6.21986762e-02 2.31421724e-01 3.07665952e-02 9.52695608e-02 7.63614289e-03 -1.88372284e-01 2.15657037e-02 1.00298040e-01 6.04809783e-02 1.64979901e-02 2.40097567e-01 -2.20648289e-01 1.17167391e-01 1.17794037e-01 -4.76591922e-02 -1.02145681e-02 1.07854091e-01 -1.43720925e-01 -8.93174112e-02 -6.26332015e-02 -1.70607910e-01 3.73370349e-02 8.17799270e-02 1.45397589e-01 5.42433858e-02 -1.41416594e-01 -1.15818873e-01 -9.14769173e-02 -4.97299731e-02 -7.74113759e-02 1.59228116e-01 8.46725777e-02 -1.61179021e-01 -5.65215349e-02 1.73083112e-01 2.23624110e-01 1.17933609e-01 -1.29368275e-01 2.22385317e-01 3.56517360e-02 -5.99531364e-03 2.54834685e-02 -9.64248478e-02 -1.05153974e-02 4.98228054e-03 5.47570512e-02 3.31128016e-02 -1.45144209e-01 -6.53646365e-02 8.63461290e-03 1.23930082e-01 1.25677750e-01 -9.35409740e-02 6.82312101e-02 1.07614890e-01 -3.14170010e-02 1.62505373e-01 -1.16012469e-01 -2.16921210e-01 1.54277757e-01 7.75184948e-03 1.92212045e-01 1.71460122e-01 -1.22283220e-01 1.57924965e-01 -8.80812630e-02 8.79991949e-02 1.19509390e-02 -1.28078490e-01 1.05962984e-01 1.54965162e-01 1.16043620e-01 -2.07395241e-01 -3.93777899e-02 1.44974664e-01 -8.95193294e-02 -1.57090440e-01 5.73364608e-02 1.47896647e-01 2.25489035e-01 6.10379539e-02 1.77597478e-01 -6.38980642e-02 -9.03358161e-02 -6.39910400e-02 -1.73726112e-01 7.31542259e-02 -3.66265327e-02 -1.97730884e-01 1.96124852e-01 8.26145113e-02 -1.65999949e-01 7.20576495e-02 -6.20387904e-02 -1.04868308e-01 2.05662876e-01 -9.93341394e-03 -1.97731435e-01 -1.92405641e-01 4.19475920e-02 5.69033138e-02 9.88620743e-02 6.27589822e-02 7.34698474e-02 -1.36301458e-01 7.98999295e-02 6.41537979e-02 -2.09200438e-02 1.56819224e-01 2.02313319e-01 -1.15560085e-01 6.58514053e-02 1.87136456e-01 8.58500004e-02 1.10529296e-01 -1.08094923e-02 1.28137186e-01 -1.81286465e-02 -1.88529231e-02 1.19913660e-01 1.68528691e-01 2.86240280e-02 7.29548782e-02 -3.83743532e-02 -1.06663652e-01 3.32278609e-02 -3.71351428e-02
-8.16673785e-02 8.52075871e-03 -5.19825108e-02 1.26137912e-01 1.71203986e-01 3.08897257e-01 -1.46566853e-01 2.09508836e-01 -3.99049297e-02 -1.42084271e-01 7.31231570e-02 2.11143404e-01 1.69195801e-01 -3.06796283e-02 1.78964630e-01 1.24155268e-01 -3.39472629e-02 -1.19556025e-01 1.90396920e-01 1.84601750e-02 4.94642146e-02 1.72590509e-01 1.19202852e-01 5.78828976e-02 2.28659540e-01 -2.01787829e-01 -1.86803028e-01 1.83174774e-01 -1.17795184e-01 -3.47856320e-02 -1.18005842e-01 8.79060701e-02 -8.35137740e-02 2.14436114e-01 -9.12067890e-02 1.50391147e-01 -1.82627454e-01 5.68869598e-02 8.35076720e-02 6.16893470e-02 -2.18592752e-02 -1.31159246e-01 1.44607171e-01 -3.37664358e-04 -7.62223005e-02 2.75598075e-02 -1.13976337e-01 1.31643236e-01 -1.26495004e-01 -5.49693108e-02 -1.39342472e-01 -1.24875240e-01 1.00490548e-01 1.35343596e-01 -3.47756445e-02 9.91566926e-02 -9.63517576e-02 9.84075293e-02 1.55345067e-01 -1.73996925e-01 1.64099947e-01 -4.54916013e-03 1.81950722e-02 2.76138354e-03 1.26814812e-01 -2.12695017e-01 -1.31767809e-01 1.77178144e-01 -8.25956836e-03 9.79142487e-02 -1.79121599e-01 -8.24534744e-02 -1.04229495e-01 1.08200453e-01 -1.15131788e-01 -1.80200681e-01 1.54317558e-01 -3.27223912e-02 1.04155093e-01 -2.04827741e-01 4.24809642e-02 2.02523097e-01 6.11216053e-02 8.91590565e-02 1.40116960e-01 -7.48250335e-02 -1.53420761e-01 1.76133409e-01 -4.59255353e-02 2.26415351e-01 1.92355644e-02 -1.43137574e-01 -1.66210622e-01 -1.08063333e-01 -5.00340573e-02 -9.06405970e-03 -2.34879795e-02 -6.41328916e-02 1.56165376e-01 -1.04251117e-01 -6.06665574e-02 1.91927180e-01 1.59131050e-01 -2.61103548e-02 -5.58496453e-02 1.77987531e-01 -1.53320253e-01 1.25982791e-01 1.88787773e-01 6.70151114e-02 1.01221845e-01 -1.16959974e-01 -4.12015943e-03 1.73326328e-01 -1.21803470e-01 1.84172302e-01 3.26790847e-02 1.45045400e-01 1.26060575e-01 -5.62707037e-02 8.28001350e-02 -9.70818251e-02 -5.98530797e-03 5.13091637e-03 1.03658050e-01 3.29174735e-02 -1.38597056e-01 -6.13979101e-02
7.37851858e-02 1.35044158e-01 -9.48744416e-02 1.76979918e-02 8.40262920e-02 1.86101377e-01 -1.81193084e-01 -1.80004925e-01 -3.96684632e-02 -9.09567624e-02 -1.44439191e-01 1.12807132e-01 -6.97032362e-02 -1.39671490e-01 -7.02871084e-02 -1.70519389e-02 -8.91342834e-02 1.24459945e-01 -1.08535983e-01 -1.69535384e-01 6.19253777e-02 6.20861240e-02 6.45774975e-02 1.93752944e-02 -2.17646778e-01 -1.04605709e-03 -1.09407522e-01 8.96049365e-02 1.46856546e-01 -1.31662309e-01 -1.08972222e-01 9.54586789e-02 1.94894224e-02 6.56476617e-02 -1.29846960e-01 1.06442481e-01 1.06700756e-01 -6.36231899e-02 -7.47444108e-02 1.63912848e-01 -1.42419249e-01 -7.87204057e-02 1.40256420e-01 -8.98785591e-02 1.14849724e-01 1.83046430e-01 1.78961352e-01 -1.38672153e-02 -1.41840428e-01 1.32690951e-01 -1.35920927e-01 2.02936411e-01 -2.77977232e-02 -6.93105608e-02 2.52232943e-02 7.39096664e-03 1.55345559e-01 -2.09738426e-02 3.87653261e-02 -1.92791030e-01 2.24263832e-01 1.04538091e-02 1.35042295e-01 1.56260431e-01 -2.01077044e-01 -1.42486900e-01 -1.88411489e-01 -6.02584984e-03 1.53720096e-01 -1.15339339e-01 -5.06728925e-02 3.56185921e-02 -2.68182963e-01 -9.45837274e-02 -1.12018451e-01 9.96441394e-02 -1.08493194e-01 1.78929716e-02 -4.85316701e-02 -1.36285961e-01 -8.41293186e-02 -7.26907477e-02 1.71238750e-01 -1.77504674e-01 3.15088600e-01 -1.75447121e-01 -1.08353920e-01 7.77432397e-02 -1.28319159e-01 6.40180781e-02 1.47554204e-01 -2.55988479e-01 -2.40232609e-02 2.20051818e-02 -4.78696451e-03 -1.03275791e-01 1.70201331e-01 3.76093499e-02 1.86818719e-01 -4.50552888e-02 1.34663880e-02 -1.08997680e-01 4.96052951e-02 -1.40427709e-01 -1.38634965e-01 -3.49811316e-02 -2.67320275e-02 -4.43592779e-02 -1.68929379e-02 -1.25692794e-02 -2.47501396e-03 -1.92512214e-01 -1.64735600e-01 -4.72259298e-02 3.92644778e-02 1.89655334e-01 -1.23507559e-01 -2.66195387e-02 3.47723998e-03 1.79897398e-01 -6.76700994e-02 1.28052041e-01 -1.78638473e-01 -1.78686276e-01 7.68939182e-02 5.78403547e-02 1.18535206e-01 2.93639228e-02
-1.56854928e-01 2.21633315e-02 -1.05326056e-01 -2.09761158e-01 -1.69512868e-01 -1.13298416e-01 -1.68968901e-01 5.67593053e-02 4.09508236e-02 1.25577599e-02 -5.04194386e-02 -1.53767154e-01 -6.08978458e-02 1.76921636e-02 -9.54250246e-02 1.67976975e-01 -1.70504153e-01 2.67861299e-02 -2.64490284e-02 5.00723533e-02 -7.13024884e-02 3.00057437e-02 1.72525153e-01 4.46386449e-03 2.44572759e-02 -1.07090183e-01 -1.35492042e-01 -2.89409831e-02 9.41220745e-02 -4.58831191e-02 -1.82651520e-01 -2.20873013e-01 -5.09121045e-02 -6.55682106e-03 1.41550720e-01 -5.47625721e-02 9.12859011e-03 6.02635741e-02 1.17129274e-01 -1.92403525e-01 1.50019554e-02 -1.13902733e-01 7.27737695e-02 2.22079027e-02 1.33009940e-01 -1.29608735e-01 1.80284426e-01 -3.61344293e-02 1.11301683e-01 8.99671987e-02 -1.40850782e-01 -1.90700442e-01 -1.95525378e-01 1.06458291e-01 -1.28070608e-01 1.25699386e-01 3.41003984e-02 5.73966885e-03 -1.07133895e-01 5.32760359e-02 -5.74787296e-02 1.05937436e-01 3.14035341e-02 1.91705957e-01 1.45717919e-01 1.59952655e-01 -2.01663636e-02 4.90643689e-03 6.85457811e-02 -5.37082590e-02 1.20335624e-01 -1.29979542e-02 -9.79814082e-02 2.84067821e-02 -6.20757788e-02 -3.97856273e-02 -1.82410479e-01 -1.55004829e-01 -1.47662908e-01 1.07550044e-02 1.08005494e-01 -3.39911655e-02 -4.21529002e-02 -1.30296960e-01 1.49261281e-01 9.83940884e-02 -1.05722666e-01 8.79383013e-02 -2.08346009e-01 -1.96833655e-01 4.77623865e-02 1.37160495e-01 -1.06059335e-01 3.69981676e-01 1.71824977e-01 -1.43688440e-01 -1.63871631e-01 -1.68789998e-01 -1.34904876e-01 -9.28673744e-02 -3.19358110e-02 -6.42247573e-02 4.22540270e-02 -1.19759165e-01 -3.76546010e-02 -2.27359757e-01 -1.68561339e-01 6.09240085e-02 4.54021469e-02 2.88335290e-02 -1.23140007e-01 -1.55106202e-01 -7.79456273e-02 2.09632859e-01 -1.35428207e-02 -1.60400838e-01 -1.50799900e-01 5.39092235e-02 1.04814246e-01 -4.60557789e-02 1.28872544e-02 2.64183357e-02 5.92671037e-02 1.83208346e-01 -3.90959494e-02 -9.84074995e-02 1.83730125e-01 5.91075160e-02
-2.29830742e-01 4.80711088e-02 -7.89299607e-02 1.24592753e-02 -2.24021468e-02 2.89874114e-02 -5.27099036e-02 1.71246171e-01 -1.01473056e-01 -1.54634133e-01 -1.95656270e-01 1.41023397e-01 5.35897501e-02 -1.48405448e-01 1.31080106e-01 1.67666420e-01 -6.50803372e-02 7.28557557e-02 1.80518657e-01 1.12205282e-01 -2.18006670e-01 1.99809317e-02 7.32277632e-02 2.53454875e-02 1.02380708e-01 9.02052373e-02 -7.66621158e-02 -5.02146129e-03 -1.90260470e-01 -1.59619376e-01 2.31080037e-02 -1.77463994e-03 3.57619934e-02 2.31900975e-01 -1.74645811e-01 -3.57219577e-02 2.81479321e-02 -4.31563780e-02 -3.68410647e-02 -1.08765632e-01 -5.52792028e-02 -1.79807872e-01 -1.41704351e-01 -1.69284672e-01 8.16365927e-02 4.62612584e-02 1.86149746e-01 1.44865975e-01 6.26064688e-02 -6.57415986e-02 6.55575246e-02 -1.41285002e-01 -3.97894271e-02 1.77914605e-01 -1.87559441e-01 -2.32252136e-01 -1.54149964e-01 -1.95239156e-01 -1.38988374e-02 -2.03251004e-01 -7.86045864e-02 -1.44523889e-01 -1.16947800e-01 -1.18535094e-01 -1.26708850e-01 -1.63188994e-01 -1.21944666e-01 -1.48429275e-01 1.78427443e-01 -1.64730921e-01 6.92295283e-02 -1.00168340e-01 1.45141661e-01 -9.73431990e-02 4.30640988e-02 2.02441514e-02 1.41271204e-01 -1.87977120e-01 1.82670891e-01 -6.52115494e-02 1.84764460e-01 -2.54396915e-01 1.34854138e-01 -5.94301969e-02 -1.80190265e-01 2.90636234e-02 1.97172582e-01 -1.90754414e-01 -2.13876754e-01 -2.02903092e-01 -1.39853254e-01 1.37432814e-01 -6.76099509e-02 1.50332570e-01 1.53944045e-01 -7.97467232e-02 8.03358108e-02 -8.85494128e-02 -5.48888594e-02 -2.31767267e-01 1.26182497e-01 7.78320283e-02 -3.61813195e-02 1.60203204e-01 -9.93923917e-02 -1.32409304e-01 -8.87946188e-02 7.54329115e-02 5.75387664e-02 9.78651568e-02 -1.40115231e-01 -1.06915064e-01 1.17823668e-01 1.52501045e-02 6.22126982e-02 -1.21173933e-01 -1.67952463e-01 -1.32708862e-01 6.32160157e-02 -1.54513702e-01 -1.51965335e-01 -1.45077616e-01 -2.08185077e-01 9.39473063e-02 1.63139239e-01 2.43646465e-02 1.96327820e-01 4.47602607e-02
-1.28389969e-01 1.25727933e-02 -1.05758272e-02 1.63095817e-01 1.00440130e-01 -3.81121747e-02 -1.56114429e-01 -1.98655635e-01 3.43992114e-02 2.49260012e-02 -1.24898285e-01 1.22838557e-01 -1.25345856e-01 -7.91255534e-02 -1.85299382e-01 -1.61680505e-01 1.96373954e-01 1.43535495e-01 1.40775517e-01 4.59055118e-02 1.73081651e-01 -1.05271168e-01 3.96983810e-02 -1.21969506e-01 -2.26012599e-02 -1.85931906e-01 2.70047393e-02 -5.92516214e-02 -1.97713524e-01 4.35360931e-02 4.90457788e-02 -3.25351544e-02 1.32904842e-01 -1.39903992e-01 -1.69642687e-01 1.29418358e-01 4.12085839e-02 1.85566656e-02 -2.24858578e-02 -1.62518114e-01 1.68666363e-01 -1.95543304e-01 1.09485678e-01 2.16264296e-02 -7.08117560e-02 -1.27128959e-01 4.60945675e-03 1.36365339e-01 1.47756070e-01 8.89192894e-02 -1.07197165e-01 2.12978553e-02 3.14672403e-02 -6.62949085e-02 1.19392574e-01 -1.33422419e-01 1.61160287e-02 6.62817508e-02 -9.79654789e-02 -2.37640664e-02 2.22245380e-01 1.53739437e-01 8.14017132e-02 -2.01367930e-01 -1.00367583e-01 -5.06086983e-02 1.14204690e-01 -6.01186976e-02 1.59140423e-01 4.01197746e-02 5.09287529e-02 1.28767595e-01 1.75450854e-02 1.53485492e-01 -1.11271754e-01 1.51358217e-01 -2.28152901e-01 9.42796841e-03 1.49924219e-01 1.12878151e-01 7.25504160e-02 -2.05981717e-01 1.38149029e-02 1.63565993e-01 -1.27012655e-01 9.59682986e-02 -2.22048834e-02 -1.56940177e-01 1.81341603e-01 -1.05507642e-01 8.82844478e-02 5.81648350e-02 -1.11976139e-01 -7.82878175e-02 -8.43180120e-02 1.63564593e-01 -5.15355803e-02 9.22572687e-02 1.22216329e-01 2.63315979e-02 1.87526748e-01 -1.80797264e-01 -1.19979396e-01 -7.38811716e-02 1.48023054e-01 -2.16270253e-01 2.33521499e-02 -9.47181433e-02 8.87951907e-03 -1.82062253e-01 5.50069194e-03 1.09119557e-01 -1.58024713e-01 9.49350819e-02 1.33546367e-01 -7.42069036e-02 -1.43605620e-01 -1.58247694e-01 1.69549331e-01 -2.10373417e-01 -2.94485409e-03 -1.28226712e-01 -2.67476514e-02 3.64336669e-02 1.98836982e-01 -1.37310728e-01 -1.58296764e-01 1.02766901e-01
9.51995421e-03 -1.63770854e-01 -1.53091833e-01 6.33797795e-02 5.27522527e-02 -4.52598855e-02 -5.30066453e-02 -9.55960229e-02 1.60153285e-01 3.89995016e-02 -2.12595001e-01 -7.84635395e-02 1.07732393e-01 -1.05938911e-02 -1.12507001e-01 -1.05390519e-01 7.18861222e-02 -6.76593855e-02 -9.62553620e-02 9.35138613e-02 4.10132557e-02 4.63003963e-02 3.38432863e-02 -1.53692991e-01 -1.92622334e-01 8.91432315e-02 -7.95129389e-02 1.41966462e-01 -1.46345779e-01 -1.14601932e-01 1.08499214e-01 5.09715155e-02 -1.04929648e-01 -9.48853493e-02 1.77046001e-01 1.79331586e-01 -6.13386668e-02 -1.21800050e-01 -2.03868166e-01 -3.73785943e-02 1.67768877e-02 1.68932676e-02 -1.52971923e-01 1.04836144e-01 -6.52850270e-02 -9.73707885e-02 1.58278331e-01 3.03915162e-02 1.95375472e-01 8.68263841e-02 1.81825712e-01 -6.74279705e-02 -1.30850658e-01 1.05880618e-01 1.15793601e-01 -1.51487872e-01 1.90761745e-01 7.41578713e-02 -1.05437912e-01 2.36414429e-02 6.61950260e-02 1.58702374e-01 -1.57917053e-01 7.57714212e-02 1.19079821e-01 1.67992979e-01 -1.10002518e-01 -7.06446022e-02 4.71355952e-02 1.06590413e-01 -5.85862249e-02 1.42703548e-01 -5.31680770e-02 1.41593263e-01 9.87011194e-02 9.20333564e-02 -2.00862572e-01 5.23273051e-02 1.85341537e-01 1.41944200e-01 3.32125202e-02 2.47887801e-02 -2.10196033e-01 1.29414544e-01 1.41125694e-01 8.28695521e-02 1.87391862e-01 -1.96860712e-02 -2.04480231e-01 -1.36573896e-01 -1.02576934e-01 1.21749885e-01 -7.16907158e-02 1.93275169e-01 1.38347358e-01 1.49285749e-01 1.40753880e-01 -1.61956102e-01 -2.97761112e-02 -1.57273844e-01 -1.33789688e-01 -2.18429506e-01 1.67252377e-01 -1.90748777e-02 -6.51258007e-02 -4.05356064e-02 -5.61957136e-02 -1.21837586e-01 -3.38141322e-02 -2.11474746e-01 1.45947337e-01 -4.08090930e-03 6.32003695e-02 -6.76388517e-02 -1.75377905e-01 1.85959369e-01 7.70560876e-02 1.05468556e-01 1.85814396e-01 -1.62377596e-01 6.90072104e-02 -2.49872729e-02 -1.92357838e-01 9.19321328e-02 -1.14538252e-01 -2.16975659e-01 -5.07906973e-02 -1.88946337e-01
-7.58455694e-02 -6.84842374e-03 -2.00852320e-01 -1.32956160e-02 1.23357520e-01 3.17053869e-02 1.24393813e-01 3.39532606e-02 -1.18385576e-01 -1.42878532e-01 -1.85169563e-01 8.41402486e-02 4.72739153e-02 -1.57312393e-01 1.75283760e-01 5.59004024e-02 -2.05161840e-01 1.83482483e-01 -1.28589734e-01 -2.08994970e-02 -6.65536970e-02 7.28111193e-02 -7.99413025e-02 -1.73172310e-01 2.01087996e-01 9.99440104e-02 -6.45523742e-02 2.82045510e-02 -7.73466229e-02 -4.25527524e-03 -6.03333116e-02 -1.37977466e-01 7.51157999e-02 -2.33008176e-01 -2.22561061e-01 -6.83836490e-02 4.27439325e-02 -1.50336400e-01 -1.04462534e-01 -1.97132632e-01 1.69402715e-02 1.86331436e-01 8.37172270e-02 1.30895168e-01 -6.17119521e-02 3.50925252e-02 3.78109477e-02 -1.38811111e-01 -1.36491075e-01 4.98450473e-02 6.02028333e-02 -9.76078957e-03 -8.70544240e-02 -1.88884139e-01 -9.96738579e-03 -9.42356288e-02 2.50794441e-02 1.00824118e-01 -1.03396073e-01 1.93566725e-01 -6.91820756e-02 -2.02499732e-01 1.34430200e-01 -1.64119571e-01 1.28568381e-01 1.06390640e-01 8.17912817e-02 -1.00924954e-01 -1.68403015e-01 -5.70744462e-02 1.61681071e-01 1.05770417e-01 -6.38949424e-02 -1.22782506e-01 -3.19743231e-02 1.91954970e-02 -4.03866917e-02 1.97544917e-01 -2.19679296e-01 7.29048476e-02 5.21914847e-03 6.71521872e-02 -9.36435387e-02 -1.41800493e-01 -2.11889997e-01 -1.69692170e-02 -2.00102627e-01 -5.07251807e-02 -4.72699031e-02 -1.79896176e-01 -8.79434571e-02 6.85791969e-02 -1.65425483e-02 -1.25561878e-01 -9.83733162e-02 -1.98525608e-01 5.51853031e-02 -1.73511371e-01 2.09916636e-01 -4.28351350e-02 -8.35916921e-02 1.54602706e-01 1.40805900e-01 -5.12465611e-02 -1.27468660e-01 8.54817927e-02 1.59701362e-01 -1.91952720e-01 1.09268814e-01 1.88345760e-01 1.21789798e-01 -9.79845896e-02 1.66034669e-01 1.03304252e-01 1.09322682e-01 1.84720829e-01 -1.42260715e-01 -2.30203107e-01 9.97141451e-02 -2.08576843e-01 1.25053570e-01 -2.90334634e-02 1.64265856e-01 -1.28403306e-01 5.72527684e-02 9.70431566e-02 -1.37926236e-01 -1.95832834e-01
4.85149166e-03 -1.52905419e-01 -9.03130099e-02 -8.90192538e-02 -1.43782243e-01 3.87872718e-02 1.32146761e-01 2.71222787e-03 1.59188464e-01 -4.28942032e-02 1.45296291e-01 -1.09332733e-01 -1.03063360e-01 1.96724787e-01 6.40596151e-02 8.54031965e-02 4.52208817e-02 1.53983712e-01 1.38215050e-01 1.11963652e-01 1.14969477e-01 -1.72202408e-01 -2.57687625e-02 8.65766853e-02 -1.84083238e-01 -6.39128760e-02 -1.05647400e-01 1.55548692e-01 3.33079174e-02 -1.01871818e-01 2.06713900e-01 1.84125543e-01 1.83561444e-01 -4.25314046e-02 -4.16693231e-03 -2.01181546e-01 -1.02469459e-01 -2.12306678e-01 9.86833647e-02 -5.20385392e-02 -7.39534795e-02 -1.22050038e-02 1.80608079e-01 3.98676731e-02 -8.84789601e-02 -2.39218082e-02 1.78503975e-01 6.17540292e-02 -1.34716630e-01 -1.64001867e-01 7.57142231e-02 -6.31386638e-02 -7.35427365e-02 7.51495063e-02 7.05081969e-02 1.03308715e-01 -7.96603560e-02 -1.78602617e-02 2.39317954e-01 6.74696593e-03 -1.75851539e-01 1.38956428e-01 1.91309333e-01 5.19972332e-02 1.49748072e-01 1.08156741e-01 5.44454269e-02 -1.73994511e-01 -2.27478921e-01 -1.55495822e-01 -7.49546513e-02 4.65183891e-02 5.16010728e-03 2.79994365e-02 -8.49829316e-02 1.02110207e-01 -2.92438604e-02 1.84268691e-02 9.82547179e-02 1.23350650e-01 8.14105347e-02 -1.40772745e-01 -1.25369892e-01 -9.27503332e-02 4.00694907e-02 1.65063515e-01 5.77376522e-02 1.90751657e-01 -9.15399268e-02 -1.85444877e-01 -2.18272526e-02 -1.81309685e-01 1.66835949e-01 1.90547869e-01 -1.05600066e-01 1.55502543e-01 2.34000206e-01 1.76632345e-01 -2.08958611e-01 1.60868302e-01 7.17642605e-02 1.40267611e-01 1.88216239e-01 -9.79506746e-02 -1.77386329e-01 8.30689371e-02 -9.21889618e-02 1.64066717e-01 3.57401557e-02 -1.05177306e-01 -1.81834891e-01 -3.62505503e-02 1.62634596e-01 1.90942124e-01 4.88611795e-02 6.79568052e-02 -4.12409790e-02 -1.43069446e-01 -1.05302356e-01 1.63034514e-01 3.21719684e-02 2.36365870e-01 8.07504803e-02 2.82331873e-02 -1.49078697e-01 6.61404729e-02 2.29012966e-02 -5.89522300e-03
-2.41250470e-01 2.77975723e-02 -7.40828142e-02 1.71937883e-01 1.29411474e-01 -2.29570922e-02 -9.09072831e-02 1.05403371e-01 4.07428294e-02 -9.26292390e-02 2.69795619e-02 3.65124695e-04 -9.12651047e-03 1.48342401e-02 6.37957901e-02 -6.20925799e-02 2.42102295e-02 -3.63206454e-02 -1.53524894e-02 -1.20626360e-01 3.64155769e-02 8.44337686e-04 1.33473828e-01 4.41917367e-02 -3.06754112e-02 -8.39272067e-02 1.45320281e-01 2.55448930e-02 -8.62436146e-02 -2.17625171e-01 1.77134857e-01 -2.06447423e-01 -1.78285703e-01 1.19398460e-01 7.75612667e-02 4.19231057e-02 1.54277280e-01 -1.65780440e-01 -1.90499097e-01 -2.89865732e-01 -1.09486446e-01 -1.12233050e-01 5.97694516e-02 -3.98753472e-02 6.74005970e-02 -1.28944725e-01 -1.89386562e-01 1.66904926e-01 1.42958820e-01 -2.10249588e-01 1.27586916e-01 -7.40949064e-02 -1.33752719e-01 1.64996296e-01 -7.82028884e-02 -9.02625024e-02 -5.17511740e-02 -1.94186255e-01 -1.09117948e-01 8.42864215e-02 -9.54141617e-02 1.93025306e-01 1.92209214e-01 1.52862191e-01 5.35079390e-02 -1.08862974e-01 -7.58101121e-02 -7.73774907e-02 -1.81638002e-01 -8.31759535e-03 -8.08000416e-02 1.91197488e-02 2.65160054e-02 -5.46070710e-02 -2.18952164e-01 1.46598741e-01 5.42804087e-03 -1.50172397e-01 1.47626922e-01 1.89578049e-02 -1.50276676e-01 -4.71538790e-02 4.73210551e-02 -1.78043604e-01 -5.99624515e-02 -1.38062879e-01 -4.48229648e-02 -1.10937901e-01 -1.15195140e-01 1.84880123e-01 1.86736524e-01 -1.63045362e-01 1.18423633e-01 2.89122518e-02 9.53777656e-02 1.59404829e-01 2.55466737e-02 1.95706874e-01 -1.24291740e-01 -1.34975493e-01 -1.94246754e-01 1.26231804e-01 -1.41035452e-01 -4.31760512e-02 2.53787134e-02 -9.94451791e-02 -8.74429718e-02 5.88923469e-02 -4.38068472e-02 -2.01063886e-01 1.07045680e-01 1.57933176e-01 -1.37457103e-01 -5.07674403e-02 1.16057388e-01 -7.07539320e-02 -9.57454741e-02 -1.84166357e-01 1.48429871e-01 3.03694252e-02 -7.53754973e-02 1.52651682e-01 -1.82346359e-01 -2.10668206e-01 3.72274965e-02 1.04249261e-01 -1.29627466e-01 -8.79447907e-02
-6.86551481e-02 -1.72624096e-01 -1.52282774e-01 1.50836781e-01 -6.13353178e-02 -1.69732794e-01 3.08798291e-02 1.54475763e-01 -2.07890254e-02 1.95916012e-01 -1.58845022e-01 4.12675366e-02 1.57364249e-01 4.43877503e-02 8.44767466e-02 7.85317346e-02 1.75415084e-01 4.40371176e-03 -7.37706795e-02 -1.76618434e-02 6.79546893e-02 -1.12536319e-01 1.49573773e-01 -1.27895251e-01 4.44619404e-03 -8.21563751e-02 1.43873632e-01 -1.06639288e-01 1.29653066e-01 1.29151121e-01 -1.44586623e-01 1.79633185e-01 -3.54339071e-02 9.48388502e-02 1.63552910e-01 -1.51703075e-01 -8.94103497e-02 -1.13320407e-02 -1.34037882e-01 2.14621663e-01 -1.18053764e-01 -4.94542532e-02 1.66622967e-01 -6.79713711e-02 -1.11077316e-01 1.43667718e-03 1.04373470e-01 1.36684510e-03 -8.92152414e-02 4.29906808e-02 -9.72239748e-02 1.75082788e-01 -1.96565147e-02 1.15962513e-01 2.93275584e-02 -1.14588730e-01 1.36686713e-01 -1.58776119e-01 -1.42225310e-01 3.05631272e-02 -1.47322929e-02 -1.89982951e-01 -1.55686289e-01 5.67112789e-02 -6.75511062e-02 -1.37708619e-01 -3.93407755e-02 -6.82531446e-02 -2.35159788e-02 -1.43458247e-01 -9.64706093e-02 -1.14239231e-01 1.04361638e-01 1.44687116e-01 1.59780994e-01 -2.21082449e-01 -8.86249468e-02 4.00579199e-02 1.52322590e-01 1.27432570e-01 1.60146460e-01 -8.35981667e-02 -1.04032658e-01 4.16556783e-02 -1.26119301e-01 1.79253042e-01 -7.00983331e-02 1.58394396e-01 -1.24713279e-01 2.58328523e-02 -1.53263006e-02 -1.92634881e-01 -1.29066437e-01 8.99227858e-02 1.05073400e-01 -1.84379652e-01 1.68104947e-01 2.30044484e-01 7.43029937e-02 -1.49199650e-01 1.16246127e-01 1.71206724e-02 -2.97578424e-02 -1.44848302e-01 9.63592529e-02 -1.51988611e-01 6.46600723e-02 -5.35718873e-02 1.47818655e-01 3.41073200e-02 -8.04775655e-02 6.83871135e-02 -1.76320583e-01 1.80803761e-01 -6.00138567e-02 1.95790738e-01 9.25578848e-02 -2.47311145e-02 6.55493001e-03 -2.42435988e-02 5.82266599e-02 2.10068151e-02 5.68171926e-02 -7.35611990e-02 -1.85017079e-01 -4.79348116e-02 1.38701886e-01 -2.14447647e-01
9.98919159e-02 -1.65262535e-01 -8.89839977e-03 -6.86080530e-02 1.47980168e-01 1.73838019e-01 8.92200246e-02 1.53695196e-01 -1.56076789e-01 2.69782674e-02 -1.84485659e-01 -3.30835879e-02 1.91425160e-01 1.01364087e-02 -4.62877862e-02 6.84159100e-02 5.80839254e-02 -6.91303164e-02 -1.84833318e-01 1.08804040e-01 1.29560530e-01 -3.77594028e-03 -9.08738747e-02 1.35647565e-01 -8.48195106e-02 1.92901418e-01 -5.22448421e-02 -9.24548805e-02 2.36571170e-02 -2.44552046e-02 1.06564678e-01 -6.05417825e-02 9.49100684e-03 2.03397915e-01 1.79452538e-01 -1.03089549e-01 -1.47719443e-01 -1.35652363e-01 1.86633348e-01 6.73592463e-02 2.21907482e-01 -5.98241314e-02 -1.31059334e-01 1.68044612e-01 1.23916075e-01 -1.13614246e-01 -2.02917352e-01 -9.71458107e-02 -1.71565458e-01 1.02298051e-01 1.22585580e-01 -1.41367480e-01 2.20019445e-01 -3.56468116e-03 1.18642561e-01 -6.56655729e-02 -2.02209786e-01 1.38578892e-01 6.96720853e-02 1.97435588e-01 -1.14809461e-01 -1.85781807e-01 -1.83310062e-01 -6.44843802e-02 1.81703016e-01 1.43558867e-02 -6.90872967e-02 1.78937197e-01 6.61774352e-02 1.51710836e-02 1.47119701e-01 5.47495000e-02 2.11372361e-01 1.43719837e-01 2.55808849e-02 -1.06241889e-01 -9.39111412e-02 -1.37556657e-01 1.51939586e-01 2.03965947e-01 1.73838824e-01 8.47097039e-02 -1.32642895e-01 -1.39030889e-01 6.66938201e-02 2.54890565e-02 -1.97264835e-01 1.43867880e-01 1.71698123e-01 -7.08165905e-03 -4.26667854e-02 1.18024908e-01 -1.29937753e-01 1.19222151e-02 1.90319091e-01 -1.07812509e-01 2.15587690e-01 1.53353602e-01 2.12559234e-02 2.27891192e-01 2.53925119e-02 1.26632735e-01 1.87760573e-02 -1.97348014e-01 -1.63551018e-01 1.86676353e-01 1.72920868e-01 1.11765184e-01 1.87092602e-01 1.64304495e-01 -1.35274813e-01 1.47168785e-01 4.15965542e-02 -1.76235154e-01 -4.53424007e-02 -1.55004755e-01 -3.25175934e-02 -5.72543554e-02 1.25451520e-01 1.02686808e-01 1.97661832e-01 2.08322898e-01 1.30911648e-01 2.24108733e-02 2.17569739e-01 1.38691559e-01 5.40613160e-02 1.37753874e-01
-4.12219875e-02 -1.66069567e-01 1.23706549e-01 -1.50715522e-02 1.59756497e-01 -2.40231097e-01 -1.09205954e-01 -1.17227778e-01 1.43543810e-01 -6.08360171e-02 1.89513370e-01 -8.93957764e-02 -6.71855286e-02 1.39908791e-01 -1.80233166e-01 -1.47278249e-01 1.17225572e-01 1.12644270e-01 -1.94560200e-01 -1.71910450e-01 -1.62402958e-01 -5.56492805e-02 -9.03957244e-03 3.94124985e-02 -1.24634514e-02 5.53963929e-02 4.19311784e-02 2.20796958e-01 -2.94327438e-02 2.40059216e-02 2.06747577e-01 -2.35208441e-02 4.80920151e-02 -3.12137716e-02 1.91822052e-01 9.17909443e-02 -8.87554958e-02 -4.83087031e-03 5.03450222e-02 -2.13984162e-01 -1.12706292e-02 -1.99496350e-03 -1.22083001e-01 -1.52532443e-01 7.59397075e-02 -1.51590794e-01 -2.35940188e-01 1.09028682e-01 1.14303499e-01 -1.60512596e-01 -2.19874512e-02 -8.68217871e-02 -1.32478580e-01 -2.56868601e-01 6.36084974e-02 -2.00903490e-02 -4.40089218e-02 1.54418215e-01 1.18095554e-01 9.04899836e-02 1.66492805e-01 -8.16383660e-02 -5.60915889e-03 -1.97458416e-01 8.81160870e-02 -8.05850700e-02 6.76944852e-02 -8.89208987e-02 -1.49978250e-02 -5.02955988e-02 -5.42487539e-02 1.95170492e-01 1.13050928e-02 1.10254295e-01 1.04367152e-01 1.64479837e-02 4.58316132e-03 1.47928730e-01 -1.37751594e-01 -3.91443931e-02 -1.75320044e-01 1.57658100e-01 1.90522209e-01 1.57743424e-01 -2.16805473e-01 1.62553892e-01 -6.66617230e-02 2.36989595e-02 1.36122718e-01 1.43721446e-01 -7.27398396e-02 -7.29265958e-02 1.72466990e-02 9.07002240e-02 1.86205685e-01 1.47215411e-01 6.56627640e-02 1.28387198e-01 -1.93619996e-01 -1.37864694e-01 1.16534099e-01 4.97752689e-02 -9.64599252e-02 -1.80221468e-01 1.15923628e-01 1.67099759e-02 -1.07044891e-01 -2.51961336e-03 1.00238420e-01 1.27592057e-01 4.97368388e-02 -7.33589157e-02 -9.29665044e-02 -1.54763192e-01 -1.15274392e-01 -2.21681684e-01 1.38170004e-01 8.33991840e-02 6.75603822e-02 8.73812754e-03 -1.18470013e-01 -4.49525751e-02 -2.01830529e-02 8.47297981e-02 1.64090663e-01 1.03357814e-01 4.16417643e-02 7.81472847e-02
-1.82974890e-01 -2.81687651e-04 -2.23394349e-01 2.94274110e-02 1.59858793e-01 -8.79975259e-02 -1.13814019e-01 -1.06886528e-01 -8.88725296e-02 1.41082972e-01 -8.56304616e-02 5.63888550e-02 -1.95795208e-01 8.26753955e-03 1.37453064e-01 1.25237048e-01 1.73735395e-01 5.17849848e-02 1.63681969e-01 7.63855502e-02 -1.30200520e-01 1.67982191e-01 -1.14541262e-01 -1.13510557e-01 -4.61031310e-02 -8.64175931e-02 9.40363035e-02 1.43112585e-01 1.82000741e-01 -1.80447876e-01 -7.34063759e-02 9.59392563e-02 6.89898878e-02 -7.33125582e-02 5.50268851e-02 1.42884716e-01 4.33749296e-02 1.98235050e-01 2.23385423e-01 -8.92790332e-02 -9.10021663e-02 1.82408080e-01 1.38763696e-01 -1.26311272e-01 -5.28131165e-02 1.36036396e-01 5.14779687e-02 -6.25313148e-02 3.98211703e-02 1.76349506e-01 -6.96285367e-02 1.00763038e-01 -7.80150890e-02 -1.44817889e-01 6.00089319e-02 -1.26480520e-01 -1.87819675e-01 -2.30386332e-01 -9.41601694e-02 2.22076438e-02 1.02250636e-01 1.39625043e-01 1.23944022e-01 4.72673029e-03 4.63550026e-03 -1.68543100e-01 -6.95447326e-02 -6.73525035e-02 -8.49444233e-03 -1.43593296e-01 -1.93704903e-01 -1.77811727e-01 5.83514348e-02 -1.34261027e-01 1.86978951e-01 5.57052344e-02 1.18562125e-01 1.54233664e-01 1.95701644e-01 1.79383337e-01 -1.89133376e-01 -4.83987033e-02 -1.99730620e-01 -1.10972583e-01 -1.90494701e-01 1.07916392e-01 2.84731817e-02 -1.07766844e-01 -1.05340943e-01 -2.07987756e-01 1.64136022e-01 -3.32803652e-02 -2.35704064e-01 -2.34266162e-01 5.71139678e-02 -1.19593494e-01 7.68895075e-02 2.08955500e-02 1.83789894e-01 3.03989351e-01 8.62384811e-02 5.22319041e-02 1.46912426e-01 -7.23287761e-02 2.11252064e-01 1.60735771e-01 -1.81371555e-01 -8.86802152e-02 4.15003523e-02 1.42465815e-01 7.86624327e-02 5.53638674e-02 -1.30940929e-01 -2.33027726e-01 -2.36499563e-01 -1.44039318e-01 -7.94431716e-02 -2.03555197e-01 1.78295583e-01 -4.89835814e-03 1.03634223e-01 9.78885144e-02 -1.90329075e-01 9.42258388e-02 -1.13763124e-01 3.12828347e-02 -3.74443345e-02 -8.67489800e-02
1.61026970e-01 -1.88489899e-01 6.48416579e-02 1.60130665e-01 7.63505697e-02 -1.42532751e-01 -1.43878862e-01 9.44532529e-02 -1.94085792e-01 7.94530660e-02 -1.02391206e-01 -1.52403593e-01 -5.27453534e-02 -4.19916771e-02 2.17625812e-01 1.33396715e-01 -1.30223170e-01 9.80701819e-02 -2.32225787e-02 1.34394333e-01 3.13567487e-03 9.39489827e-02 -1.31642461e-01 -2.20447890e-02 -1.31564587e-01 -1.55781448e-01 -2.74024289e-02 2.74588577e-02 1.28870890e-01 8.57104361e-03 9.41753536e-02 5.05607240e-02 -2.03233119e-02 4.10107300e-02 1.60213858e-01 1.44402623e-01 -8.00214112e-02 3.46662290e-02 -5.16090542e-02 2.32871175e-02 -4.94919941e-02 8.63019526e-02 1.20870650e-01 -9.04838741e-02 -9.98182520e-02 -2.95239724e-02 -3.17721032e-02 5.50339781e-02 1.52879268e-01 8.18981826e-02 -1.64689139e-01 -1.96104676e-01 -3.77890095e-02 -1.00225369e-02 5.65852672e-02 1.82622939e-01 1.37451127e-01 1.51448503e-01 4.45793122e-02 1.35145307e-01 -4.36623618e-02 1.23432472e-01 -5.69416955e-02 1.08895518e-01 -8.09235722e-02 1.06360622e-01 -1.33697882e-01 -1.53858274e-01 -1.34243872e-02 -1.42462671e-01 -1.32545099e-01 4.85641584e-02 1.44333735e-01 -1.86815202e-01 -1.20406255e-01 1.23942375e-01 -1.22967758e-03 -3.53535861e-02 5.65067567e-02 1.31057322e-01 1.53936982e-01 1.71596527e-01 4.13839854e-02 1.07309908e-01 -9.53444745e-03 1.80065650e-02 -7.54356757e-02 -1.52049452e-01 -1.58837229e-01 -9.32231471e-02 1.03471637e-01 1.54150203e-01 5.42230085e-02 1.11470781e-01 1.34395529e-02 8.54228586e-02 1.08466439e-01 -1.69577345e-01 -1.35599330e-01 -1.23682968e-01 -7.77117684e-02 8.04181769e-02 -3.07687409e-02 -7.45112151e-02 2.47141682e-02 -5.93199134e-02 -6.50989562e-02 -1.53147370e-01 1.61183000e-01 4.16256413e-02 -3.91020328e-02 -2.40653872e-01 5.11054182e-03 -1.70397177e-01 9.85297039e-02 -9.83168557e-02 1.37467667e-01 -5.56829274e-02 2.21307613e-02 2.47189954e-01 7.31052905e-02 1.49358079e-01 -1.36912704e-01 -2.39439592e-01 -8.98797810e-02 1.87249616e-01 1.84722662e-01 1.02358490e-01
-1.57173142e-01 1.23482957e-01 -1.52243925e-02 1.83429606e-02 2.75614578e-02 -1.02738857e-01 1.05656544e-02 2.54433960e-01 -1.39818981e-01 -1.71015024e-01 1.94755659e-01 -2.36323923e-02 1.63605362e-01 2.72933692e-02 8.05644989e-02 -1.34071693e-01 1.68503806e-01 -1.82716653e-01 1.76946297e-01 -1.52965516e-01 -1.52534217e-01 1.16203770e-01 1.21236399e-01 -1.08108096e-01 1.69601932e-01 -7.52338246e-02 -3.31866369e-02 6.49663955e-02 1.25176683e-01 -1.55023932e-01 8.18968043e-02 -1.42316639e-01 -1.98556453e-01 8.80732611e-02 1.44687876e-01 -3.58671620e-02 4.07008976e-02 1.30202249e-01 -1.14965759e-01 1.47147492e-01 8.11840296e-02 1.07230477e-01 3.39809954e-02 -1.63948983e-01 -5.80501780e-02 1.05318986e-01 -1.03722274e-01 -2.04913944e-01 7.63306916e-02 2.59074420e-02 -1.79114193e-01 4.08947803e-02 1.58768281e-01 -2.98467018e-02 5.24521396e-02 1.83827430e-02 1.73700288e-01 -9.27159041e-02 1.45371825e-01 6.85555744e-04 8.93439725e-02 -6.65182760e-03 -1.87866002e-01 5.99422716e-02 1.92602053e-01 -6.57420084e-02 1.08552292e-01 9.35578719e-02 3.12552787e-02 1.66843638e-01 1.01699263e-01 1.04558297e-01 -1.28835574e-01 7.08434880e-02 5.14233336e-02 2.99182516e-02 -1.15750439e-01 -5.62756089e-03 -1.32414967e-01 1.54876381e-01 1.02415636e-01 -9.30857807e-02 -1.00388035e-01 -4.06587981e-02 -1.51502237e-01 1.71194479e-01 -1.87479213e-01 1.16222478e-01 6.85572177e-02 -8.78062546e-02 -1.27702028e-01 -4.61071841e-02 1.72248185e-01 9.03781205e-02 -1.20994121e-01 -9.22039449e-02 1.49357438e-01 -1.16399638e-01 1.15813643e-01 -1.41926920e-02 -1.44632176e-01 1.41458347e-01 3.04169897e-02 -1.02822520e-01 9.13291797e-02 1.68373808e-01 1.36570662e-01 -7.38268867e-02 4.03632261e-02 -7.08118528e-02 1.76326916e-01 8.65250640e-03 -2.04680055e-01 -2.94741169e-02 2.79825088e-02 -1.95248667e-02 2.64320970e-02 6.34871051e-02 -6.25555143e-02 1.04186520e-01 -2.28569154e-02 -1.64239153e-01 -4.15080972e-03 1.08907863e-01 8.06121081e-02 1.55299827e-01 -5.03698699e-02 1.14244372e-01
-1.51867285e-01 -1.30281061e-01 -1.05488874e-01 -1.25330031e-01 1.29896060e-01 2.93151382e-02 -1.19937792e-01 1.61225647e-01 -2.11295590e-01 3.75266075e-02 1.43995970e-01 1.70169249e-01 -1.91123307e-01 1.68139398e-01 -9.34066484e-04 1.47189885e-01 8.19176883e-02 -5.65576591e-02 1.63579524e-01 -8.03832859e-02 -2.73692477e-02 -1.20429866e-01 -5.91718256e-02 1.63839951e-01 -1.36325940e-01 1.24252886e-01 2.22349167e-01 1.35675427e-02 1.40614286e-01 -1.65974885e-01 2.13237517e-02 -4.39572148e-02 1.75219119e-01 -3.02065965e-02 1.13676995e-01 4.07517515e-02 -1.43951699e-01 1.38923556e-01 -1.90281287e-01 -2.21689902e-02 -1.26012191e-01 -9.06287134e-02 -9.10572410e-02 -1.81440696e-01 2.28154287e-02 7.34362602e-02 1.31144941e-01 -1.06057689e-01 -7.08152875e-02 -9.00136307e-02 1.62277907e-01 -2.00326160e-01 -1.53436899e-01 -1.04001770e-02 -5.60812652e-02 9.18769464e-02 4.33667526e-02 -3.09825335e-02 -1.74073782e-02 6.07664557e-03 -1.36586204e-01 5.74404113e-02 -1.16514601e-01 -1.34428099e-01 1.61698699e-01 1.18265487e-01 5.12299947e-02 -1.60899103e-01 -7.84000605e-02 -1.55646145e-01 -2.20699221e-01 3.69336680e-02 -3.13181430e-02 -1.65012032e-01 1.94991156e-01 1.67409524e-01 -2.61187162e-02 -2.64460742e-01 -9.41953585e-02 8.41722637e-02 -2.54918598e-02 -1.27233371e-01 -2.99722794e-02 -3.11606135e-02 1.61320686e-01 1.72007129e-01 -6.52483329e-02 -1.25897259e-01 4.90276255e-02 4.04684581e-02 1.09578200e-01 9.74945724e-02 -1.41188353e-01 -8.28286260e-02 -1.09094337e-01 1.03851311e-01 3.32516991e-02 1.36308521e-01 -3.18709500e-02 -1.96280271e-01 -1.53567791e-01 1.06847622e-01 8.77540633e-02 1.81173414e-01 -1.38946832e-03 -4.39888239e-02 -1.29467687e-02 3.08039393e-02 1.26094148e-01 1.62637606e-02 -1.28535796e-02 1.33118704e-01 1.51621401e-01 -1.01728156e-01 -3.23597789e-02 -1.89904109e-01 -1.40883744e-01 6.15133089e-04 1.44409552e-01 2.70543229e-02 8.93449858e-02 -9.24403518e-02 2.23971140e-02 -1.20821826e-01 5.02276756e-02 1.69901520e-01 1.90884665e-01 -9.87803861e-02
